%YAML:1.0
---
opencv_ml_svm:
   format: 3
   svmType: C_SVC
   kernel:
      type: RBF
      gamma: 1.
   C: 1.
   term_criteria: { epsilon:1.1920928955078125e-07, iterations:1000 }
   var_count: 1764
   class_count: 2
   class_labels: !!opencv-matrix
      rows: 2
      cols: 1
      dt: i
      data: [ 0, 1 ]
   sv_total: 28
   support_vectors:
      - [ 2.29820684e-01, 1.43147081e-01, 3.56671102e-02, 1.30985245e-01,
          2.29820684e-01, 2.29820684e-01, 2.29820684e-01, 2.29820684e-01,
          2.20523000e-01, 2.29820684e-01, 9.90971178e-02, 1.29271835e-01,
          1.03886969e-01, 1.60327524e-01, 1.07461810e-01, 2.29820684e-01,
          2.29820684e-01, 1.94911480e-01, 2.29820684e-01, 1.92216292e-01,
          1.19926289e-01, 1.65871575e-01, 2.10940808e-01, 2.29820684e-01,
          2.29820684e-01, 1.20330021e-01, 1.92647055e-01, 8.30956399e-02,
          1.89310294e-02, 2.99452301e-02, 5.83365820e-02, 1.22764409e-01,
          5.53479865e-02, 8.74700993e-02, 2.26197671e-02, 6.16491437e-02,
          1.41219363e-01, 1.56312391e-01, 2.41165310e-01, 1.11053035e-01,
          2.02130109e-01, 9.85635817e-02, 2.32712552e-01, 1.68188930e-01,
          1.71776026e-01, 6.92178011e-02, 1.30063325e-01, 2.12030292e-01,
          1.32487833e-01, 2.71225214e-01, 2.63438344e-01, 2.71225214e-01,
          1.66633338e-01, 1.40454173e-01, 3.32617871e-02, 1.31665925e-02,
          4.93513197e-02, 2.70231944e-02, 1.59636527e-01, 5.47673404e-02,
          7.44908452e-02, 2.19645109e-02, 3.03970072e-02, 1.48431972e-01,
          1.17136173e-01, 2.43929341e-01, 1.01483576e-01, 2.71225214e-01,
          2.31209621e-01, 2.71225214e-01, 1.24207854e-01, 1.01054616e-01,
          9.37277824e-02, 1.15412191e-01, 1.16557598e-01, 1.19658127e-01,
          2.69244909e-01, 2.44600162e-01, 2.69244909e-01, 1.69627726e-01,
          1.88613862e-01, 4.93985116e-02, 5.39484806e-02, 3.33340056e-02,
          6.53669685e-02, 1.45345151e-01, 1.13349535e-01, 4.62771468e-02,
          5.30153848e-02, 9.22750160e-02, 2.69244909e-01, 1.57294378e-01,
          2.42346063e-01, 2.08893016e-01, 2.69244909e-01, 2.14278162e-01,
          2.69244909e-01, 1.54398471e-01, 2.69244909e-01, 1.62490234e-01,
          7.38094002e-02, 5.49433753e-02, 1.36032969e-01, 2.38952667e-01,
          5.99331707e-02, 2.51705144e-02, 2.48243511e-02, 1.33464262e-01,
          2.09512785e-01, 1.24242432e-01, 5.61712570e-02, 1.08624712e-01,
          1.99860722e-01, 1.87174365e-01, 1.24152727e-01, 1.09973475e-01,
          2.50240415e-01, 2.28010833e-01, 1.18892871e-01, 7.30949119e-02,
          5.67378029e-02, 1.26130566e-01, 1.17485560e-01, 1.52182013e-01,
          1.64008111e-01, 2.50240415e-01, 2.50240415e-01, 2.03021422e-01,
          9.93864089e-02, 1.72681123e-01, 2.50240415e-01, 1.07224949e-01,
          6.17937148e-02, 4.75208089e-02, 2.50240415e-01, 2.50240415e-01,
          1.80805013e-01, 1.14799686e-01, 6.24076873e-02, 2.32873619e-01,
          1.04573525e-01, 7.99546242e-02, 9.00973827e-02, 2.50240415e-01,
          1.78866148e-01, 1.12730458e-01, 8.39679167e-02, 2.88900603e-02,
          4.58310843e-02, 5.85446842e-02, 6.67423680e-02, 1.48365781e-01,
          3.05306047e-01, 3.05306047e-01, 1.66315228e-01, 3.82873006e-02,
          5.83499409e-02, 1.34412453e-01, 7.34710991e-02, 8.15551877e-02,
          1.71819538e-01, 3.05306047e-01, 2.35000312e-01, 1.32308155e-01,
          7.04584047e-02, 2.51127258e-02, 7.14887902e-02, 7.77846575e-02,
          7.67113939e-02, 1.30352035e-01, 3.05306047e-01, 3.05306047e-01,
          1.84855893e-01, 2.88600828e-02, 3.59974355e-02, 1.71803832e-01,
          1.55983269e-01, 1.34925619e-01, 2.00529531e-01, 3.05306047e-01,
          2.36349270e-01, 6.71798140e-02, 6.44894242e-02, 7.98558891e-02,
          1.26479968e-01, 8.26203302e-02, 4.99829873e-02, 5.94494566e-02,
          2.36349270e-01, 2.36349270e-01, 1.68362305e-01, 1.61451757e-01,
          2.36349270e-01, 2.36349270e-01, 1.27766013e-01, 6.55018166e-02,
          8.56735706e-02, 2.36349270e-01, 2.35605955e-01, 7.84882084e-02,
          6.86902702e-02, 6.32008910e-02, 2.00684547e-01, 1.39415622e-01,
          8.42680186e-02, 7.14531168e-02, 2.36349270e-01, 1.97660834e-01,
          1.35358199e-01, 2.21943021e-01, 2.30258927e-01, 2.36349270e-01,
          2.19989866e-01, 1.33759767e-01, 9.43416953e-02, 2.17532262e-01,
          1.28564537e-01, 5.27360030e-02, 8.67513791e-02, 1.54013589e-01,
          1.47991255e-01, 4.51001339e-02, 2.97436453e-02, 3.36215980e-02,
          1.02107219e-01, 1.30506039e-01, 2.29594648e-01, 2.67102242e-01,
          2.67102242e-01, 2.18082786e-01, 7.67406300e-02, 4.92679328e-02,
          3.32120918e-02, 1.13594934e-01, 9.88124907e-02, 7.10672736e-02,
          1.18180789e-01, 2.47588590e-01, 2.67102242e-01, 6.29653856e-02,
          6.10755384e-02, 2.68696155e-02, 8.56426433e-02, 2.67102242e-01,
          2.42470160e-01, 2.67102242e-01, 2.67102242e-01, 2.67102242e-01,
          1.04039557e-01, 1.46190748e-01, 5.65701425e-02, 2.67102242e-01,
          3.52462769e-01, 3.52462769e-01, 3.52462769e-01, 3.52462769e-01,
          3.52462769e-01, 2.50428349e-01, 2.61053711e-01, 1.68900773e-01,
          3.52462769e-01, 1.61915064e-01, 5.18901534e-02, 4.63250168e-02,
          8.90466645e-02, 1.63298696e-01, 1.17793996e-02, 7.09982291e-02,
          7.73427449e-03, 9.32332277e-02, 6.99358135e-02, 8.06347374e-03,
          2.71841753e-02, 7.54400808e-03, 6.20714203e-02, 4.34085215e-03,
          3.21920519e-03, 1.07580295e-03, 4.98974770e-02, 7.18379160e-05,
          7.93906875e-05, 6.97990326e-05, 0., 0., 0., 0., 0.,
          3.29245231e-05, 1.44566302e-05, 6.12742128e-03, 9.40220524e-03,
          8.47385544e-03, 2.17962474e-01, 4.72625196e-02, 1.90953929e-02,
          3.22448136e-03, 1.44566302e-05, 1.01339772e-01, 6.27569705e-02,
          1.34317368e-01, 9.42665115e-02, 4.46711928e-01, 2.99646795e-01,
          1.94745019e-01, 4.26146276e-02, 4.21578921e-02, 3.30838520e-04,
          0., 1.53910862e-02, 2.72099813e-03, 2.07855359e-01,
          1.90995298e-02, 3.07816695e-02, 1.60526452e-05, 3.30838520e-04,
          1.16618900e-02, 3.96833606e-02, 2.58403152e-01, 5.98174334e-02,
          4.46711928e-01, 2.37507105e-01, 4.46711928e-01, 2.51991618e-02,
          1.61339846e-02, 2.46054232e-01, 7.53147304e-02, 1.55686393e-01,
          1.47215486e-01, 3.89551640e-01, 2.68667698e-01, 2.02908844e-01,
          5.75504750e-02, 1.08202443e-01, 1.37263224e-01, 4.38519269e-02,
          4.88297790e-02, 7.23848417e-02, 1.44425005e-01, 6.53554946e-02,
          4.47242036e-02, 3.48952673e-02, 8.54772478e-02, 7.05944225e-02,
          8.98863301e-02, 2.59972483e-01, 8.11135992e-02, 3.89551640e-01,
          2.74503708e-01, 3.89551640e-01, 7.38077760e-02, 7.71869197e-02,
          1.03536248e-01, 7.74346888e-02, 4.85197045e-02, 2.64491159e-02,
          1.11366324e-01, 7.63388276e-02, 8.16648006e-02, 9.24607515e-02,
          9.54516754e-02, 2.81127840e-01, 9.09089521e-02, 5.13609201e-02,
          6.47823438e-02, 2.14031354e-01, 6.24818131e-02, 4.99696769e-02,
          7.01034665e-02, 2.33054474e-01, 2.85066545e-01, 1.25086442e-01,
          5.22839502e-02, 2.71420032e-02, 1.63088411e-01, 7.44043514e-02,
          5.75865135e-02, 6.65794611e-02, 2.85066545e-01, 2.85066545e-01,
          2.14065999e-01, 1.11825094e-01, 5.21689355e-02, 1.27323240e-01,
          6.65401220e-02, 1.02312766e-01, 1.69438556e-01, 2.85066545e-01,
          2.85066545e-01, 2.08757192e-01, 9.77806523e-02, 5.78733608e-02,
          1.13410011e-01, 8.69871601e-02, 1.28128260e-01, 1.75500855e-01,
          2.85066545e-01, 2.03519180e-01, 7.87608996e-02, 2.13962663e-02,
          9.82194114e-03, 4.55222167e-02, 5.97307459e-02, 4.52827141e-02,
          6.05080351e-02, 2.46843487e-01, 2.72790551e-01, 1.08768575e-01,
          7.12191164e-02, 4.55331095e-02, 8.51281285e-02, 1.04069009e-01,
          7.14418590e-02, 7.89542645e-02, 2.72790551e-01, 2.72790551e-01,
          1.10986397e-01, 7.43680522e-02, 5.13762906e-02, 1.04418583e-01,
          8.80815834e-02, 8.24493691e-02, 1.87722325e-01, 2.72790551e-01,
          2.72790551e-01, 2.58014441e-01, 2.72790551e-01, 2.09469005e-01,
          1.45560950e-01, 9.20311660e-02, 1.08677089e-01, 2.72790551e-01,
          2.72790551e-01, 1.24056727e-01, 4.98666763e-02, 9.72534120e-02,
          6.05651252e-02, 9.78797302e-02, 5.45608178e-02, 3.57357971e-02,
          3.09032630e-02, 8.01788792e-02, 1.30477995e-01, 6.26031086e-02,
          1.74944296e-01, 1.61362544e-01, 2.82651484e-01, 1.15074068e-01,
          1.75501153e-01, 1.45601049e-01, 1.23879611e-01, 1.47364214e-01,
          9.99057740e-02, 2.24697769e-01, 1.75149664e-01, 2.29130596e-01,
          5.01166359e-02, 4.92473505e-02, 8.76480192e-02, 1.35684460e-01,
          2.13267446e-01, 1.02743611e-01, 2.82651484e-01, 2.82651484e-01,
          2.82651484e-01, 2.16063395e-01, 2.47478247e-01, 2.19432771e-01,
          2.42277607e-01, 7.35763013e-02, 4.15003560e-02, 8.65261182e-02,
          1.62055284e-01, 2.82504261e-01, 8.26679692e-02, 1.22282177e-01,
          6.76137879e-02, 6.20843396e-02, 1.52992606e-01, 1.24411970e-01,
          1.56685218e-01, 2.82504261e-01, 2.82504261e-01, 9.52390805e-02,
          1.09113030e-01, 4.62389104e-02, 1.13477230e-01, 4.86353599e-02,
          3.10470313e-02, 1.31449327e-01, 2.09639817e-01, 2.82504261e-01,
          2.36827731e-01, 2.19341278e-01, 1.15213193e-01, 7.18140677e-02,
          3.99806015e-02, 4.17982787e-02, 1.19648255e-01, 2.21720964e-01,
          2.82504261e-01, 2.71875441e-01, 2.82504261e-01, 1.31436676e-01,
          5.10018617e-02, 4.50572222e-02, 8.98146711e-04, 4.88681020e-03,
          0., 2.58190860e-03, 0., 6.99731847e-03, 2.14671195e-02,
          5.34293875e-02, 2.90423688e-02, 0., 0., 0., 0., 0.,
          4.58636147e-04, 3.02314479e-03, 3.03615052e-02, 3.72299880e-01,
          6.31313175e-02, 8.75761658e-02, 1.31942658e-02, 9.07976553e-02,
          6.18166216e-02, 3.72299880e-01, 3.72299880e-01, 3.72299880e-01,
          3.72299880e-01, 4.73411940e-02, 3.12062558e-02, 6.16251118e-03,
          1.03709325e-02, 1.91578809e-02, 3.83974761e-02, 3.58245611e-01,
          3.72299880e-01, 6.88911974e-03, 0., 8.20628554e-03,
          8.17289483e-03, 8.05726126e-02, 1.18968049e-02, 1.86849684e-02,
          2.75178551e-04, 7.04207225e-03, 8.07643123e-03, 1.78074017e-02,
          1.27550378e-01, 1.27118319e-01, 3.13002318e-01, 2.35325575e-01,
          2.90052980e-01, 1.45517383e-02, 1.37988143e-02, 2.72780031e-01,
          1.25017008e-02, 1.24723334e-02, 1.83163695e-02, 4.45214063e-02,
          2.31746174e-02, 2.97628809e-02, 3.13002318e-01, 3.13002318e-01,
          1.53870001e-01, 3.00913621e-02, 5.88402897e-02, 2.41314471e-01,
          3.13002318e-01, 3.13002318e-01, 1.61053643e-01, 2.84662813e-01,
          2.35320747e-01, 4.62514348e-02, 4.93556671e-02, 9.39916819e-02,
          9.46649536e-02, 2.97547638e-01, 2.10051715e-01, 2.16807067e-01,
          5.30023761e-02, 5.77249564e-02, 1.60634384e-01, 1.74080595e-01,
          4.18363363e-02, 2.53093187e-02, 6.80305064e-02, 4.18484844e-02,
          3.19875255e-02, 7.54327625e-02, 9.62487534e-02, 2.41262600e-01,
          1.54888183e-01, 1.52559802e-01, 2.26112023e-01, 2.97547638e-01,
          2.97547638e-01, 1.68289602e-01, 1.19098559e-01, 1.23081744e-01,
          2.97547638e-01, 2.97547638e-01, 2.18906492e-01, 1.23676039e-01,
          1.13112554e-01, 5.48404343e-02, 4.06245664e-02, 1.35339767e-01,
          2.01544702e-01, 2.71452725e-01, 2.24856615e-01, 1.01471521e-01,
          3.59358788e-02, 3.05611435e-02, 1.21857766e-02, 2.15576310e-02,
          7.27184415e-02, 1.69548303e-01, 2.93027848e-01, 1.45657972e-01,
          1.18040562e-01, 3.30953225e-02, 1.76978186e-02, 2.06821281e-02,
          6.69278949e-02, 1.13498494e-01, 2.93027848e-01, 2.93027848e-01,
          2.93027848e-01, 1.75456807e-01, 8.24860260e-02, 3.85550484e-02,
          1.44635243e-02, 1.21382670e-02, 1.23581178e-01, 2.92147875e-01,
          2.93027848e-01, 2.61714935e-01, 1.57291859e-01, 4.61012535e-02,
          1.98306665e-02, 3.41101736e-02, 5.84316328e-02, 1.25416800e-01,
          2.93027848e-01, 2.67444044e-01, 5.36615029e-02, 5.61705716e-02,
          3.29834558e-02, 5.82105070e-02, 4.39032279e-02, 6.28024191e-02,
          2.18791261e-01, 2.68876910e-01, 1.65569067e-01, 7.34836012e-02,
          1.03904605e-01, 7.40689933e-02, 8.47537294e-02, 5.47951050e-02,
          1.51072711e-01, 2.68876910e-01, 2.68876910e-01, 2.68876910e-01,
          1.01915561e-01, 5.81725538e-02, 3.61117162e-02, 5.03532104e-02,
          5.55027574e-02, 1.14142306e-01, 2.68876910e-01, 2.68876910e-01,
          2.23296955e-01, 1.02083407e-01, 8.22286010e-02, 9.14026424e-02,
          7.97464773e-02, 1.15325354e-01, 2.68876910e-01, 2.68876910e-01,
          2.68876910e-01, 6.85505122e-02, 5.87166622e-02, 1.19744018e-01,
          1.13557689e-01, 1.38885960e-01, 2.19580214e-02, 8.02874565e-02,
          1.94006875e-01, 1.30995810e-01, 9.09143686e-02, 8.94913599e-02,
          2.57410884e-01, 2.57410884e-01, 2.57410884e-01, 1.68639272e-01,
          7.33649433e-02, 1.24970585e-01, 1.72059089e-01, 1.20115720e-01,
          1.29965931e-01, 9.09826979e-02, 1.08200066e-01, 7.48773664e-02,
          5.09103686e-02, 1.49584681e-01, 2.27806121e-01, 1.49880871e-01,
          1.13690361e-01, 2.57410884e-01, 2.57410884e-01, 2.28496030e-01,
          2.57410884e-01, 2.44307443e-01, 1.57903045e-01, 2.13486180e-01,
          1.91261366e-01, 1.76002160e-02, 2.96504889e-02, 1.21464945e-01,
          1.41729876e-01, 2.83891141e-01, 2.83891141e-01, 1.34883970e-01,
          4.89953570e-02, 4.94793802e-02, 9.00668651e-03, 1.83147416e-02,
          5.65524623e-02, 6.39300793e-02, 2.83891141e-01, 2.83891141e-01,
          2.83891141e-01, 5.99602237e-02, 1.45768514e-02, 2.44573243e-02,
          9.10727754e-02, 1.19034506e-01, 7.98671916e-02, 2.83891141e-01,
          2.83891141e-01, 2.58355021e-01, 8.22053254e-02, 7.23043010e-02,
          2.38214321e-02, 6.09775595e-02, 3.64608839e-02, 4.87463363e-02,
          2.83891141e-01, 2.83891141e-01, 2.83891141e-01, 4.03214097e-02,
          5.33759855e-02, 2.16904610e-01, 7.60780424e-02, 6.02125525e-02,
          2.09721383e-02, 1.07767329e-01, 1.36376098e-01, 2.58278787e-01,
          2.38904521e-01, 2.58278787e-01, 2.58278787e-01, 9.31362808e-02,
          5.83976582e-02, 1.37421843e-02, 2.49029659e-02, 4.86888252e-02,
          6.25906512e-02, 1.92562506e-01, 2.58278787e-01, 8.10805187e-02,
          1.73600987e-01, 1.31457865e-01, 2.08874539e-01, 2.58278787e-01,
          2.58278787e-01, 2.58278787e-01, 2.09828541e-01, 9.16259065e-02,
          1.70603603e-01, 1.19635910e-01, 6.56740367e-02, 9.38788876e-02,
          1.99640960e-01, 1.60925314e-01, 1.29040390e-01, 1.15267441e-01,
          1.66529879e-01, 2.63662785e-01, 5.65384813e-02, 3.91469933e-02,
          1.94986109e-02, 2.63548922e-02, 3.21307220e-02, 3.74289416e-02,
          2.63662785e-01, 2.63662785e-01, 2.45969370e-01, 5.40187471e-02,
          1.07302211e-01, 1.11873142e-01, 2.32423693e-01, 2.63662785e-01,
          1.79124773e-01, 2.63662785e-01, 2.63662785e-01, 1.64310113e-01,
          1.10721380e-01, 6.91907853e-02, 3.02027240e-02, 4.64976616e-02,
          1.02408946e-01, 4.71992083e-02, 1.59813970e-01, 2.13021159e-01,
          1.67595670e-01, 1.10925838e-01, 1.66457787e-01, 9.35520157e-02,
          1.28821969e-01, 1.69530585e-01, 1.65308341e-01, 2.63662785e-01,
          2.20631897e-01, 2.37905607e-01, 1.37000233e-01, 1.70589000e-01,
          1.06371120e-01, 2.39339650e-01, 2.42419630e-01, 2.17138290e-01,
          2.42419630e-01, 1.47809625e-01, 2.42419630e-01, 1.91647947e-01,
          1.81879386e-01, 8.19697157e-02, 8.03108886e-02, 5.19360639e-02,
          7.69681260e-02, 1.35510653e-01, 1.33539125e-01, 1.39636606e-01,
          1.07515909e-01, 1.17619522e-01, 6.26253337e-02, 1.10209845e-01,
          1.48338825e-01, 2.42419630e-01, 2.42419630e-01, 1.65064752e-01,
          1.94142014e-01, 1.21446863e-01, 9.59983245e-02, 3.78255285e-02,
          4.29145545e-02, 6.27540350e-02, 1.93052739e-01, 2.42419630e-01,
          2.42419630e-01, 2.59191066e-01, 1.89547375e-01, 1.56187236e-01,
          1.00475408e-01, 4.47765477e-02, 2.87500191e-02, 1.94698125e-02,
          1.06728159e-01, 2.53868580e-01, 2.59191066e-01, 1.80098772e-01,
          1.21244907e-01, 9.06626731e-02, 5.71406856e-02, 8.05810317e-02,
          6.57842904e-02, 1.00610107e-01, 2.59191066e-01, 2.59191066e-01,
          1.37171760e-01, 1.33821696e-01, 7.64482394e-02, 3.49343047e-02,
          5.79041690e-02, 1.45420298e-01, 2.59191066e-01, 2.59191066e-01,
          2.47155964e-01, 1.94566324e-01, 1.89519763e-01, 1.20377339e-01,
          5.11526093e-02, 6.94208443e-02, 7.65610486e-02, 2.59191066e-01,
          2.59191066e-01, 1.46252245e-01, 1.37939081e-01, 1.74280331e-01,
          1.38309091e-01, 5.94801940e-02, 5.50140589e-02, 8.55663270e-02,
          1.36251450e-01, 1.95587158e-01, 2.32606560e-01, 2.32606560e-01,
          2.32606560e-01, 2.32606560e-01, 7.53376558e-02, 8.69850516e-02,
          2.09170952e-01, 2.22960189e-01, 2.16893718e-01, 1.09371506e-01,
          2.28365213e-01, 2.32606560e-01, 2.32606560e-01, 1.28623620e-01,
          5.46423942e-02, 4.67195027e-02, 9.59951505e-02, 1.10180102e-01,
          1.20020881e-01, 2.32606560e-01, 2.32606560e-01, 2.32606560e-01,
          1.66746885e-01, 7.99786523e-02, 1.26879245e-01, 1.21299393e-01,
          9.87491235e-02, 1.51738524e-01, 1.52638316e-01, 8.05509835e-02,
          1.00703932e-01, 4.97247800e-02, 1.01456784e-01, 2.24244952e-01,
          1.96092203e-01, 1.24851562e-01, 1.14443719e-01, 2.42338851e-01,
          2.42338851e-01, 6.33740276e-02, 2.42338851e-01, 2.29339421e-01,
          2.42338851e-01, 2.42338851e-01, 1.78791106e-01, 1.01105109e-01,
          1.28801972e-01, 7.58542567e-02, 1.02019586e-01, 3.84207629e-02,
          9.80020761e-02, 1.81834042e-01, 1.76893026e-01, 1.01510607e-01,
          1.44912019e-01, 1.62396014e-01, 1.69324741e-01, 6.02825843e-02,
          1.07079484e-01, 1.61788046e-01, 2.42338851e-01, 2.42338851e-01,
          2.42338851e-01, 7.47679099e-02, 1.65074795e-01, 1.81607857e-01,
          2.52334233e-02, 2.47624308e-01, 2.47624308e-01, 2.47624308e-01,
          1.33609667e-01, 1.17976561e-01, 8.86764154e-02, 5.53070270e-02,
          3.43074240e-02, 5.37614115e-02, 2.31425777e-01, 2.47624308e-01,
          2.47624308e-01, 8.62691179e-02, 1.34701565e-01, 9.69681069e-02,
          1.29481420e-01, 1.60519794e-01, 4.76282500e-02, 1.09434642e-01,
          1.76495150e-01, 2.47624308e-01, 2.47624308e-01, 1.42830402e-01,
          9.77032259e-02, 7.26408958e-02, 2.18727246e-01, 1.73050329e-01,
          1.07876822e-01, 2.25380808e-01, 2.47624308e-01, 1.69454783e-01,
          1.14589319e-01, 1.13146029e-01, 2.30853006e-01, 1.50172651e-01,
          2.59477556e-01, 2.59477556e-01, 2.59477556e-01, 2.59477556e-01,
          1.34444252e-01, 8.96661729e-02, 1.14804447e-01, 1.13446355e-01,
          5.69085963e-02, 1.86670840e-01, 2.59477556e-01, 1.53511450e-01,
          1.21499948e-01, 9.30007398e-02, 7.36411959e-02, 1.47197515e-01,
          1.27627924e-01, 1.10554062e-01, 2.32391164e-01, 2.59477556e-01,
          2.17124850e-01, 1.38361007e-01, 1.23526238e-01, 1.32755086e-01,
          5.79797626e-02, 7.28832707e-02, 6.61207661e-02, 1.37387484e-01,
          2.59477556e-01, 1.71214446e-01, 1.26932427e-01, 1.11457169e-01,
          4.10659872e-02, 1.76394209e-01, 1.61158592e-01, 8.35456923e-02,
          6.27403706e-02, 1.04625344e-01, 1.82837293e-01, 1.79626420e-01,
          1.84980735e-01, 1.77730978e-01, 1.83608994e-01, 1.48448393e-01,
          1.39729470e-01, 1.40881196e-01, 1.58347696e-01, 2.01788396e-01,
          1.94111452e-01, 2.20480427e-01, 2.12145865e-01, 1.30208015e-01,
          8.39355811e-02, 8.57920721e-02, 9.16903093e-02, 1.05709046e-01,
          1.74886391e-01, 2.20480427e-01, 2.20480427e-01, 1.73889890e-01,
          1.55531615e-01, 7.13153258e-02, 1.84277967e-01, 2.20480427e-01,
          1.73361853e-01, 1.51254743e-01, 1.55390516e-01, 2.20480427e-01,
          2.20480427e-01, 1.23283438e-01, 1.11214451e-01, 1.24486312e-01,
          1.33788973e-01, 1.56841606e-01, 1.73001349e-01, 2.19397023e-01,
          2.36281678e-01, 1.37240067e-01, 1.30194783e-01, 1.12929150e-01,
          1.59519225e-01, 1.30179361e-01, 1.40018284e-01, 1.60580426e-01,
          2.36281678e-01, 2.36281678e-01, 2.36281678e-01, 8.56916979e-02,
          5.86814545e-02, 1.83581471e-01, 2.36281678e-01, 2.29345545e-01,
          1.33965775e-01, 1.42631546e-01, 1.27899393e-01, 7.06208721e-02,
          1.41132683e-01, 1.41788661e-01, 1.64750189e-01, 1.64312571e-01,
          1.91389427e-01, 1.50608718e-01, 1.96993202e-01, 2.36281678e-01,
          1.17076248e-01, 1.76614806e-01, 1.45409450e-01, 1.70379728e-01,
          1.40787601e-01, 7.25817084e-02, 1.83632284e-01, 2.45700076e-01,
          2.45700076e-01, 2.45700076e-01, 2.45700076e-01, 2.41893992e-01,
          1.67889342e-01, 1.00329056e-01, 2.37302203e-02, 5.92449605e-02,
          1.14657752e-01, 2.45700076e-01, 2.45700076e-01, 1.51524827e-01,
          2.13032156e-01, 1.67658046e-01, 1.36528298e-01, 8.16510096e-02,
          1.66403681e-01, 2.08063796e-01, 2.45700076e-01, 1.50073171e-01,
          1.68803051e-01, 1.41205072e-01, 8.91134739e-02, 6.44193143e-02,
          3.20671387e-02, 6.56855255e-02, 9.71980244e-02, 1.20429754e-01,
          1.25397310e-01, 2.09292099e-01, 2.31682688e-01, 2.31682688e-01,
          2.15222463e-01, 9.89319906e-02, 6.34086505e-02, 8.85657072e-02,
          1.49277568e-01, 1.61443293e-01, 1.64013088e-01, 2.31682688e-01,
          2.31682688e-01, 2.31682688e-01, 1.33924708e-01, 1.15602262e-01,
          1.96916908e-01, 1.70514032e-01, 1.20144717e-01, 1.69834569e-01,
          1.11874498e-01, 9.79702845e-02, 1.20289691e-01, 3.17352377e-02,
          5.86925186e-02, 9.72804651e-02, 9.24826562e-02, 9.84454602e-02,
          2.31682688e-01, 2.31682688e-01, 2.12081060e-01, 2.31682688e-01,
          3.79443243e-02, 1.01131074e-01, 1.86110660e-01, 1.58469409e-01,
          2.31682688e-01, 1.49744898e-01, 1.85194746e-01, 1.26921102e-01,
          1.34195402e-01, 3.27507816e-02, 5.12410253e-02, 7.85362199e-02,
          9.25536826e-02, 1.36152491e-01, 2.09072754e-01, 2.18186811e-01,
          1.12222880e-01, 1.66055411e-01, 1.07832618e-01, 1.82179615e-01,
          2.28756696e-01, 2.28756696e-01, 2.28756696e-01, 2.28756696e-01,
          2.28756696e-01, 1.53804749e-01, 1.17772058e-01, 2.94955503e-02,
          5.19177243e-02, 6.85944930e-02, 7.88340122e-02, 2.27416143e-01,
          2.28756696e-01, 2.28756696e-01, 1.97202429e-01, 1.80671126e-01,
          1.43628180e-01, 2.23162562e-01, 1.32071972e-01, 1.08775638e-01,
          2.28756696e-01, 1.09680779e-01, 1.23367138e-01, 1.20214887e-01,
          9.70622227e-02, 5.86822592e-02, 1.41165301e-01, 2.22037062e-01,
          2.22037062e-01, 1.76298410e-01, 7.63822943e-02, 1.10261947e-01,
          2.22037062e-01, 2.22037062e-01, 9.30114165e-02, 8.41395780e-02,
          1.44230306e-01, 1.96398959e-01, 1.25471935e-01, 1.71764314e-01,
          1.64063483e-01, 1.35520637e-01, 1.28853634e-01, 1.44530043e-01,
          2.02640980e-01, 1.54232562e-01, 2.07253978e-01, 2.22037062e-01,
          1.17549494e-01, 1.18550897e-01, 1.42440021e-01, 2.22037062e-01,
          2.22037062e-01, 2.21844569e-01, 1.49003536e-01, 2.22037062e-01,
          2.22037062e-01, 1.40395477e-01, 1.03079244e-01, 2.22043186e-01,
          1.46490574e-01, 2.22043186e-01, 2.22043186e-01, 1.21782787e-01,
          1.72027081e-01, 1.34475201e-01, 6.52076155e-02, 6.34396374e-02,
          1.16358139e-01, 1.02142602e-01, 2.22043186e-01, 2.22043186e-01,
          1.49343655e-01, 1.13707185e-01, 5.41764125e-02, 2.22043186e-01,
          2.01808155e-01, 2.22043186e-01, 2.13360325e-01, 2.13029251e-01,
          1.91217095e-01, 9.46838707e-02, 1.32010624e-01, 1.95369348e-01,
          2.22043186e-01, 1.06413476e-01, 1.60280168e-01, 8.69135410e-02,
          1.79928496e-01, 1.41220197e-01, 1.31947458e-01, 1.49267778e-01,
          2.22043186e-01, 8.33561793e-02, 4.50048111e-02, 5.78514822e-02,
          8.00362378e-02, 1.16591640e-01, 1.24100283e-01, 1.37286171e-01,
          1.79600462e-01, 9.15939808e-02, 7.49264807e-02, 1.27433822e-01,
          2.67873377e-01, 2.67873377e-01, 1.44223541e-01, 1.20938070e-01,
          9.53633338e-02, 1.71092540e-01, 1.12361029e-01, 2.67873377e-01,
          1.84823647e-01, 1.24513395e-01, 6.01319410e-02, 1.34161785e-01,
          1.04773998e-01, 1.07474521e-01, 1.55084893e-01, 2.67873377e-01,
          2.59896368e-01, 2.67873377e-01, 2.67873377e-01, 1.54128626e-01,
          1.10667586e-01, 2.05957368e-01, 1.09942652e-01, 1.46038055e-01,
          2.32508466e-01, 1.03204638e-01, 1.80667177e-01, 2.54777580e-01,
          2.54777580e-01, 1.36538193e-01, 6.13572076e-02, 4.45149615e-02,
          6.63818493e-02, 6.48884848e-02, 1.90413520e-01, 2.04499990e-01,
          1.67065784e-01, 9.09837186e-02, 1.01284757e-01, 7.54151270e-02,
          9.64389667e-02, 1.71984747e-01, 1.23944201e-01, 2.54777580e-01,
          2.54777580e-01, 2.54777580e-01, 1.12587102e-01, 4.52784412e-02,
          1.20647766e-01, 6.04212135e-02, 1.05509400e-01, 2.49884889e-01,
          2.54777580e-01, 2.54777580e-01, 1.51980057e-01, 3.93294804e-02,
          5.80595434e-02, 1.10278308e-01, 7.62442350e-02, 2.54777580e-01,
          2.54777580e-01, 2.18671128e-01, 1.58989087e-01, 9.87521410e-02,
          6.30271807e-02, 5.39523251e-02, 1.00418590e-01, 1.01442397e-01,
          2.03030258e-01, 1.76901266e-01, 2.52870202e-01, 2.86442965e-01,
          9.09866989e-02, 3.73737291e-02, 2.49970350e-02, 4.49703746e-02,
          5.27511351e-02, 8.53509456e-02, 1.63642853e-01, 2.86442965e-01,
          2.18533888e-01, 8.55420679e-02, 4.06170748e-02, 8.48094970e-02,
          1.30673811e-01, 8.57384577e-02, 2.86442965e-01, 2.86442965e-01,
          2.86442965e-01, 2.86442965e-01, 8.21226537e-02, 3.01904231e-02,
          3.48799117e-02, 4.05888222e-02, 6.02005422e-02, 1.56751662e-01,
          2.86442965e-01, 2.44477987e-01, 2.30788514e-01, 9.30707082e-02,
          6.75700605e-02, 1.65959075e-02, 4.44690324e-02, 6.20567985e-02,
          1.02971271e-01, 1.40300155e-01, 2.78947622e-01, 2.78947622e-01,
          1.76059991e-01, 1.26747131e-01, 2.99935844e-02, 7.46635348e-02,
          1.20763071e-01, 1.72006160e-01, 2.66752541e-01, 2.78947622e-01,
          2.78947622e-01, 9.16685760e-02, 3.77296545e-02, 6.67787995e-03,
          2.69406680e-02, 4.13024910e-02, 1.18470028e-01, 2.17941374e-01,
          2.78947622e-01, 2.78947622e-01, 2.05500066e-01, 8.22210163e-02,
          3.96885164e-02, 4.91798706e-02, 6.35749549e-02, 1.51462361e-01,
          2.12187439e-01, 2.56433427e-01, 2.56433427e-01, 1.36807680e-01,
          6.67823628e-02, 4.28755358e-02, 5.12511879e-02, 6.68675080e-02,
          1.35468572e-01, 1.71872184e-01, 2.56433427e-01, 2.56433427e-01,
          2.00652793e-01, 1.78616151e-01, 1.81469828e-01, 1.88617185e-01,
          8.08918774e-02, 1.31635845e-01, 1.66309908e-01, 2.56433427e-01,
          2.09517404e-01, 1.39910623e-01, 9.39306244e-02, 8.51955414e-02,
          5.94109744e-02, 5.72817586e-02, 1.31421164e-01, 9.20227543e-02,
          1.80305794e-01, 1.24158092e-01, 1.48114488e-01, 2.20685527e-01,
          2.56433427e-01, 2.56433427e-01, 8.63367841e-02, 1.39267489e-01,
          8.60443786e-02, 1.57168135e-01, 2.36592174e-01, 1.62471175e-01,
          1.53547794e-01, 1.97411835e-01, 1.82676747e-01, 7.60147646e-02,
          8.60648379e-02, 1.24855563e-01, 2.17885613e-01, 2.00048447e-01,
          1.24793679e-01, 1.76481888e-01, 2.36592174e-01, 2.14445099e-01,
          1.58088207e-01, 2.12703168e-01, 2.36592174e-01, 9.01839957e-02,
          1.44594416e-01, 9.97067466e-02, 1.56865358e-01, 2.36592174e-01,
          2.36592174e-01, 4.64411341e-02, 4.47063185e-02, 5.71826994e-02,
          1.95295215e-01, 1.28845036e-01, 6.57494888e-02, 6.03479259e-02,
          2.18593255e-01, 1.66600481e-01, 8.71992633e-02, 1.36716485e-01,
          2.36592174e-01, 2.14390740e-01, 1.99119866e-01, 1.73666671e-01,
          2.10945517e-01, 1.70617253e-01, 2.04600900e-01, 8.84689167e-02,
          1.68169498e-01, 1.82515189e-01, 2.14390740e-01, 1.39835522e-01,
          1.31346330e-01, 8.00176635e-02, 1.60077974e-01, 1.23425357e-01,
          8.17200243e-02, 2.14390740e-01, 2.14390740e-01, 1.78234443e-01,
          1.15629546e-01, 8.57731998e-02, 1.42533630e-01, 1.99627727e-01,
          2.14390740e-01, 1.87116832e-01, 2.14390740e-01, 1.38791874e-01,
          1.78412020e-01, 9.05233696e-02, 5.75091466e-02, 1.18481666e-01,
          2.14390740e-01, 1.68796390e-01, 1.29248425e-01, 2.14390740e-01,
          1.23291664e-01, 2.33932525e-01, 2.26277575e-01, 1.39950737e-01,
          8.21736231e-02, 1.33856937e-01, 1.05088428e-01, 1.32207215e-01,
          1.98540807e-01, 2.33932525e-01, 2.33932525e-01, 2.33932525e-01,
          2.33932525e-01, 1.47853866e-01, 1.35442540e-01, 1.93083137e-01,
          1.53432980e-01, 1.31115124e-01, 2.08428815e-01, 1.78874940e-01,
          9.55473930e-02, 7.15226382e-02, 1.45462602e-01, 2.30496973e-01,
          1.26849756e-01, 1.67170584e-01, 1.60791785e-01, 1.06647931e-01,
          1.09184869e-01, 1.37197390e-01, 1.22527353e-01, 2.07889542e-01,
          2.02809647e-01, 1.37002543e-01, 1.59720987e-01, 1.27246976e-01,
          8.12767968e-02, 2.40041062e-01, 2.40041062e-01, 2.40041062e-01,
          1.00984253e-01, 8.88929963e-02, 2.22522199e-01, 1.46732390e-01,
          1.51689678e-01, 2.40041062e-01, 2.40041062e-01, 2.40041062e-01,
          1.11951299e-01, 3.79579216e-02, 9.16903391e-02, 1.97565392e-01,
          9.20327976e-02, 2.33864978e-01, 2.40041062e-01, 1.12423219e-01,
          1.59782469e-01, 9.54432636e-02, 1.34907156e-01, 2.03942671e-01,
          1.47970766e-01, 1.12069435e-01, 1.38928279e-01, 1.52251616e-01,
          2.40041062e-01, 1.89652801e-01, 7.73892030e-02, 4.95387912e-02,
          9.96167958e-02, 9.79279056e-02, 6.14717864e-02, 1.24853492e-01,
          1.80586562e-01, 2.68795788e-01, 2.66727805e-01, 1.21305428e-01,
          4.86148521e-02, 1.26353383e-01, 1.67672828e-01, 7.18776584e-02,
          2.68795788e-01, 2.68795788e-01, 2.68795788e-01, 2.68795788e-01,
          5.12868017e-02, 2.17756052e-02, 5.68257943e-02, 6.24803044e-02,
          7.45528042e-02, 2.07386866e-01, 2.68795788e-01, 2.68795788e-01,
          1.79287195e-01, 1.00275740e-01, 5.09620644e-02, 7.55114779e-02,
          7.56852478e-02, 4.07823995e-02, 1.13532454e-01, 1.84329212e-01,
          2.53135651e-01, 1.12380564e-01, 3.50139067e-02, 1.39084365e-02,
          5.85222393e-02, 5.89888506e-02, 5.75997382e-02, 1.72992557e-01,
          2.68795788e-01, 2.55870879e-01, 2.55870879e-01, 5.13306633e-02,
          2.25727074e-02, 1.75509211e-02, 2.43950151e-02, 4.93375026e-02,
          1.75314397e-01, 2.55870879e-01, 2.55870879e-01, 2.55870879e-01,
          1.44881845e-01, 1.28328443e-01, 1.43248171e-01, 1.02561966e-01,
          7.25074261e-02, 1.60756275e-01, 2.50628144e-01, 2.47007445e-01,
          1.11536302e-01, 2.52243411e-02, 1.81523059e-02, 3.03589888e-02,
          2.35601738e-02, 4.56691273e-02, 1.83625624e-01, 2.55870879e-01,
          2.55870879e-01, 1.01809904e-01, 9.34994221e-02, 1.57906070e-01,
          2.55870879e-01, 1.52939975e-01, 7.09311888e-02, 1.56273857e-01,
          2.55870879e-01, 1.44442052e-01, 1.00048140e-01, 9.21931937e-02,
          1.46786198e-01, 1.69221818e-01, 1.09518342e-01, 4.79744598e-02,
          6.70403987e-02, 8.70318487e-02, 7.52836242e-02, 1.16804041e-01,
          1.44712716e-01, 2.11187780e-01, 3.50671023e-01, 3.50671023e-01,
          6.79590926e-02, 1.06802046e-01, 8.29250664e-02, 8.49466920e-02,
          5.58158122e-02, 5.50136976e-02, 1.46380648e-01, 2.93639481e-01,
          1.57737970e-01, 2.75474340e-02, 5.46165667e-02, 9.13537741e-02,
          8.90589356e-02, 1.24075271e-01, 1.09152637e-01, 1.74574599e-01,
          3.50671023e-01, 3.50671023e-01, 7.75732398e-02, 1.63888007e-01,
          1.56108886e-01, 1.86204202e-02, 2.96875611e-02, 5.89994490e-02,
          1.11994497e-01, 3.68211359e-01, 3.68211359e-01, 3.39045450e-02,
          3.94941531e-02, 2.01559309e-02, 4.59539630e-02, 1.79764386e-02,
          1.86231192e-02, 4.68135476e-02, 3.68211359e-01, 1.91832408e-01,
          1.51486518e-02, 2.57280134e-02, 6.61994740e-02, 5.07627651e-02,
          3.75685431e-02, 6.28354102e-02, 1.56355247e-01, 3.68211359e-01,
          3.68211359e-01, 8.22556987e-02, 9.40369740e-02, 6.15557320e-02,
          4.47222702e-02, 2.41830237e-02, 4.02811058e-02, 8.50426927e-02,
          3.68211359e-01, 2.08590448e-01, 5.63529991e-02, 5.69445677e-02,
          4.77483459e-02 ]
      - [ 3.17509949e-01, 2.85875082e-01, 1.16743900e-01, 6.53318241e-02,
          3.30688506e-02, 8.90400552e-05, 1.67771727e-02, 3.16018015e-02,
          9.56539586e-02, 3.17509949e-01, 2.58820862e-01, 8.31817538e-02,
          3.38433087e-02, 2.96320003e-02, 6.64467691e-04, 9.59272217e-03,
          2.55490709e-02, 1.61019564e-01, 3.17509949e-01, 3.17509949e-01,
          1.73093379e-01, 5.37312999e-02, 8.73399712e-03, 7.57437374e-04,
          2.79795798e-03, 2.62610111e-02, 2.22292542e-01, 3.17509949e-01,
          3.17509949e-01, 1.25834823e-01, 5.49888983e-02, 1.23851770e-03,
          0., 2.99388543e-04, 1.96272787e-02, 2.75538802e-01,
          3.46938312e-01, 1.11108668e-01, 4.27652709e-02, 9.80533753e-03,
          1.62046384e-02, 1.27927272e-03, 7.37040211e-03, 3.64456400e-02,
          2.52801239e-01, 3.46938312e-01, 1.11405000e-01, 5.08758128e-02,
          1.44950151e-02, 1.19277043e-02, 1.09232194e-03, 3.60545190e-03,
          3.56761441e-02, 3.46938312e-01, 3.46938312e-01, 1.72021985e-01,
          4.51897904e-02, 2.31517162e-02, 3.57193530e-05, 1.21680426e-03,
          1.28811260e-03, 3.77659909e-02, 3.26735228e-01, 3.46938312e-01,
          1.73154190e-01, 4.70708758e-02, 2.24046912e-02, 5.35790285e-04,
          3.49145494e-02, 4.76536527e-02, 3.64297219e-02, 3.46938312e-01,
          3.28487784e-01, 1.41659647e-01, 3.05323508e-02, 9.28678736e-03,
          2.15118006e-02, 4.02423367e-03, 1.05399182e-02, 2.27688923e-02,
          3.28487784e-01, 3.28487784e-01, 1.10551693e-01, 1.87756214e-02,
          1.39333000e-02, 3.03261094e-02, 7.49397464e-03, 2.21514441e-02,
          3.38187814e-02, 3.28487784e-01, 3.28487784e-01, 2.13056296e-01,
          5.83841428e-02, 1.39682051e-02, 4.70950326e-04, 4.20478098e-02,
          5.93747869e-02, 1.96560957e-02, 3.28487784e-01, 3.28487784e-01,
          1.90671161e-01, 6.01473562e-02, 1.53430523e-02, 1.92889478e-03,
          1.31952120e-02, 1.44683272e-02, 2.52695233e-02, 3.28487784e-01,
          2.87442297e-01, 8.13193694e-02, 7.69663136e-03, 1.95308272e-02,
          3.23544294e-02, 1.15746073e-02, 1.91280637e-02, 3.87185887e-02,
          2.87442297e-01, 2.87442297e-01, 6.74360469e-02, 3.50761861e-02,
          1.17159240e-01, 1.19892485e-01, 7.16440082e-02, 7.55080804e-02,
          9.03689116e-02, 2.87442297e-01, 2.87442297e-01, 1.04663268e-01,
          3.84044573e-02, 1.47618517e-01, 1.12719379e-01, 3.92302014e-02,
          4.29975204e-02, 4.12189141e-02, 2.87442297e-01, 2.87442297e-01,
          4.54773419e-02, 8.87982473e-02, 2.87442297e-01, 2.87442297e-01,
          1.80124015e-01, 1.17112815e-01, 7.48343617e-02, 2.77154893e-01,
          1.74793750e-01, 5.95603138e-02, 6.53558150e-02, 1.12784028e-01,
          1.79447606e-01, 1.25993416e-01, 9.54783484e-02, 1.71949923e-01,
          1.93242803e-01, 2.05497429e-01, 1.08228765e-01, 1.31685302e-01,
          8.45950320e-02, 1.35915413e-01, 1.15720652e-01, 1.01399943e-01,
          2.28542686e-01, 2.05721691e-01, 2.13892251e-01, 8.37246478e-02,
          1.78785965e-01, 2.28542686e-01, 2.28542686e-01, 2.24654824e-01,
          1.06346846e-01, 9.44247395e-02, 1.34504452e-01, 2.28542686e-01,
          1.76845938e-01, 2.28542686e-01, 1.33303866e-01, 2.26925120e-01,
          1.55431002e-01, 1.66007191e-01, 1.83328509e-01, 1.97684512e-01,
          2.04000875e-01, 9.22984704e-02, 1.30113065e-01, 1.73729390e-01,
          1.32420018e-01, 1.00120701e-01, 1.12982787e-01, 1.67988345e-01,
          1.75208718e-01, 2.18596295e-01, 1.72369361e-01, 1.46027416e-01,
          2.18596295e-01, 1.70046911e-01, 1.18002199e-01, 1.90021634e-01,
          7.73111209e-02, 1.60161659e-01, 2.18596295e-01, 1.68672800e-01,
          1.89281061e-01, 1.25000149e-01, 1.57535657e-01, 1.47456974e-01,
          1.63110107e-01, 1.59240633e-01, 1.77457780e-01, 2.18596295e-01,
          2.09004536e-01, 1.98890552e-01, 2.05781311e-01, 1.10751435e-01,
          1.54891908e-01, 1.89462990e-01, 1.03910990e-01, 1.73554108e-01,
          1.47634566e-01, 8.48218650e-02, 7.46391937e-02, 1.46890536e-01,
          1.53413504e-01, 7.99266472e-02, 1.12495512e-01, 8.99519324e-02,
          8.91484097e-02, 6.26560971e-02, 2.90158391e-02, 5.10885492e-02,
          2.96531290e-01, 2.96531290e-01, 2.96531290e-01, 2.96531290e-01,
          2.32463777e-01, 6.75315484e-02, 1.69185624e-01, 1.02398671e-01,
          1.07213646e-01, 1.29989862e-01, 1.09510541e-01, 8.47401619e-02,
          6.94565326e-02, 6.17312044e-02, 7.98951685e-02, 6.94395453e-02,
          6.67622611e-02, 1.23700172e-01, 2.96531290e-01, 2.96531290e-01,
          2.96531290e-01, 2.01017424e-01, 1.75001577e-01, 5.89894950e-02,
          3.49524230e-01, 1.13610692e-01, 3.86928953e-02, 1.45543283e-02,
          6.92394283e-03, 2.96909325e-02, 1.70400813e-02, 5.09235747e-02,
          3.11854452e-01, 3.49524230e-01, 1.16456322e-01, 3.59126031e-02,
          2.23222598e-02, 1.10061886e-02, 3.77667286e-02, 8.71228985e-03,
          2.00799648e-02, 3.49524230e-01, 3.49524230e-01, 2.72407774e-02,
          4.46681725e-03, 1.47191997e-04, 5.01257973e-03, 3.78119275e-02,
          2.04657186e-02, 4.32428829e-02, 3.49524230e-01, 3.49524230e-01,
          2.77622472e-02, 1.13149369e-02, 6.79012761e-03, 1.35926977e-02,
          4.85572219e-02, 1.08322268e-02, 1.29520660e-02, 3.49524230e-01,
          3.00383419e-01, 6.45470321e-02, 1.91523265e-02, 1.50975445e-02,
          3.72612756e-03, 6.71361433e-03, 2.40748050e-03, 1.73282251e-02,
          3.00383419e-01, 3.00383419e-01, 1.00895137e-01, 1.96675807e-02,
          5.65292314e-02, 1.51406750e-02, 1.20889008e-01, 1.28317729e-01,
          6.47723600e-02, 2.48677194e-01, 3.00383419e-01, 2.62842439e-02,
          1.31138740e-02, 1.05686318e-02, 4.89170803e-03, 7.45238410e-03,
          1.79488724e-03, 7.38633657e-03, 3.00383419e-01, 3.00383419e-01,
          6.93732724e-02, 6.76195398e-02, 2.13517785e-01, 2.16973677e-01,
          3.00383419e-01, 1.94417149e-01, 1.34021476e-01, 3.00383419e-01,
          1.65268019e-01, 9.38190147e-02, 1.84515063e-02, 5.26781343e-02,
          1.53215425e-02, 1.26805529e-01, 1.93627864e-01, 1.07500546e-01,
          1.39444262e-01, 1.85357705e-01, 8.42805132e-02, 3.29141878e-02,
          3.03090066e-02, 1.64872408e-02, 4.09668721e-02, 8.86906460e-02,
          8.97624418e-02, 1.58035487e-01, 1.62222788e-01, 7.57519975e-02,
          1.34258613e-01, 2.35226795e-01, 2.35226795e-01, 2.35226795e-01,
          2.35226795e-01, 2.35226795e-01, 2.32419193e-01, 2.35226795e-01,
          2.35226795e-01, 2.24409327e-01, 1.80835620e-01, 1.34924605e-01,
          1.69171125e-01, 2.35226795e-01, 2.35226795e-01, 2.35226795e-01,
          1.44267395e-01, 1.00338966e-01, 5.99118285e-02, 1.18191987e-01,
          8.44288915e-02, 4.64577340e-02, 4.79678325e-02, 3.95092741e-02,
          1.40882462e-01, 8.14014077e-02, 1.06517650e-01, 1.26012355e-01,
          2.29396895e-01, 2.15600908e-01, 8.12694579e-02, 6.57847747e-02,
          3.57872806e-02, 9.31720361e-02, 2.29396895e-01, 2.29396895e-01,
          1.91620484e-01, 1.34524465e-01, 1.25765920e-01, 1.96310803e-01,
          2.29396895e-01, 1.89149380e-01, 2.29396895e-01, 1.46923333e-01,
          2.23337486e-01, 2.29396895e-01, 2.29396895e-01, 1.70489252e-01,
          2.12471336e-01, 2.29396895e-01, 2.25413397e-01, 2.29396895e-01,
          1.09493680e-01, 1.17396213e-01, 1.93822280e-01, 2.34867334e-01,
          1.83823436e-01, 1.07762709e-01, 7.38447011e-02, 3.78660560e-02,
          8.39044303e-02, 1.45060912e-01, 1.15720920e-01, 1.82903633e-01,
          1.03780828e-01, 1.32394135e-01, 1.11820608e-01, 1.12495467e-01,
          5.58752939e-02, 1.32788569e-01, 1.31395578e-01, 2.14955807e-01,
          2.34867334e-01, 2.34867334e-01, 2.19988048e-01, 2.34867334e-01,
          2.34867334e-01, 2.28384376e-01, 1.95377350e-01, 1.46621525e-01,
          1.12570956e-01, 1.24256834e-01, 1.98492035e-01, 1.46151230e-01,
          2.34867334e-01, 2.34867334e-01, 1.55918136e-01, 9.93395150e-02,
          1.87206551e-01, 1.38891935e-01, 1.50362790e-01, 9.74195153e-02,
          1.18571378e-01, 1.34955600e-01, 9.59095284e-02, 6.11349605e-02,
          1.25390291e-01, 1.92922458e-01, 2.13284686e-01, 2.03780726e-01,
          2.31245711e-01, 8.26812387e-02, 9.42804366e-02, 1.13236047e-01,
          8.43074992e-02, 1.40217066e-01, 2.19063789e-01, 2.19974905e-01,
          1.91322878e-01, 1.32436052e-01, 1.35809541e-01, 2.31245711e-01,
          1.64912134e-01, 8.72112811e-02, 1.19964756e-01, 2.31014132e-01,
          2.31245711e-01, 2.31245711e-01, 2.31245711e-01, 1.83639184e-01,
          1.49654567e-01, 1.26874194e-01, 1.43052846e-01, 1.97960570e-01,
          1.25782222e-01, 1.72836557e-01, 1.45502090e-01, 1.71263531e-01,
          8.94015878e-02, 6.47746772e-02, 7.01807514e-02, 5.62903695e-02,
          7.33233392e-02, 9.98386145e-02, 1.38625592e-01, 1.68662935e-01,
          2.55219370e-01, 2.55219370e-01, 2.55219370e-01, 1.68116197e-01,
          1.16437212e-01, 3.95284593e-02, 1.22915134e-01, 2.55219370e-01,
          2.05477700e-01, 1.92050517e-01, 1.19456396e-01, 7.26112574e-02,
          1.12413645e-01, 1.27557263e-01, 1.01059444e-01, 9.30790976e-02,
          1.87647447e-01, 2.11002767e-01, 2.55219370e-01, 2.55219370e-01,
          2.55219370e-01, 2.55219370e-01, 8.81173536e-02, 6.66839704e-02,
          3.52130502e-01, 2.32357550e-02, 6.32711872e-03, 2.34694686e-03,
          1.42858864e-03, 5.54878917e-03, 3.13305506e-03, 7.44261499e-03,
          3.52130502e-01, 3.52130502e-01, 2.65377127e-02, 1.39927678e-02,
          5.91624761e-03, 2.65457714e-03, 7.71943247e-03, 1.50661648e-03,
          6.25796290e-03, 3.52130502e-01, 3.52130502e-01, 2.22349185e-02,
          7.44435657e-03, 2.65417923e-03, 8.91009404e-04, 0.,
          6.11029216e-04, 9.56960581e-03, 3.52130502e-01, 3.52130502e-01,
          4.34267968e-02, 1.21432543e-02, 4.28379606e-03, 1.32386049e-03,
          7.63459189e-04, 0., 9.17994790e-03, 3.52130502e-01,
          2.61067837e-01, 1.98466145e-02, 1.19645502e-02, 5.81844943e-03,
          2.32078903e-03, 3.23319272e-03, 2.16298504e-03, 4.39875294e-03,
          2.42289498e-01, 2.61067837e-01, 1.23211317e-01, 1.39374539e-01,
          2.53498465e-01, 2.61067837e-01, 1.65171966e-01, 7.38103092e-02,
          3.50045748e-02, 2.21743286e-01, 2.61067837e-01, 6.55262321e-02,
          3.78821790e-02, 4.62463731e-03, 7.55305821e-03, 5.55501059e-02,
          7.47602358e-02, 2.03032568e-02, 2.61067837e-01, 2.61067837e-01,
          2.61067837e-01, 2.61067837e-01, 1.45581692e-01, 1.55255750e-01,
          1.37500554e-01, 2.30722979e-01, 1.19987242e-01, 2.53184736e-01,
          1.14739135e-01, 1.02068178e-01, 1.88915730e-01, 2.24090487e-01,
          2.24090487e-01, 1.96031958e-01, 1.32646412e-01, 7.77630508e-02,
          8.47333893e-02, 1.54090822e-01, 2.24090487e-01, 2.24090487e-01,
          2.24090487e-01, 1.16743319e-01, 9.74638388e-02, 1.18251823e-01,
          1.77917778e-01, 1.10259309e-01, 2.24090487e-01, 2.24090487e-01,
          2.20756933e-01, 2.15111524e-01, 1.84462994e-01, 9.16343033e-02,
          1.46710902e-01, 7.02242926e-02, 1.19003385e-01, 2.03938425e-01,
          2.06077218e-01, 2.24090487e-01, 2.24090487e-01, 1.21857285e-01,
          8.27511773e-02, 8.98080170e-02, 9.07808542e-02, 1.11855455e-01,
          1.77108884e-01, 2.22130850e-01, 2.22130850e-01, 1.64258122e-01,
          7.80914277e-02, 1.29814461e-01, 1.62051857e-01, 1.51585609e-01,
          1.41143367e-01, 1.20083824e-01, 1.57614961e-01, 2.22130850e-01,
          2.22130850e-01, 1.37109786e-01, 1.92859322e-01, 2.22130850e-01,
          1.20472118e-01, 1.24219440e-01, 1.28573284e-01, 1.64448008e-01,
          2.22130850e-01, 2.22130850e-01, 9.36628655e-02, 1.17970787e-01,
          1.40383929e-01, 1.57317474e-01, 1.24459311e-01, 1.05695061e-01,
          1.20572738e-01, 1.96200714e-01, 2.22130850e-01, 1.72501788e-01,
          1.68478072e-01, 1.80398613e-01, 1.70038298e-01, 1.31797805e-01,
          8.04206058e-02, 1.26705110e-01, 1.56669036e-01, 1.71590075e-01,
          1.61216646e-01, 2.17900440e-01, 2.17900440e-01, 1.09298922e-01,
          7.41200522e-02, 1.22176722e-01, 8.80097300e-02, 8.67253765e-02,
          8.63797963e-02, 1.01225041e-01, 1.62854940e-01, 2.12770879e-01,
          1.86775714e-01, 9.17502269e-02, 1.22089922e-01, 1.33645892e-01,
          1.32424459e-01, 2.17900440e-01, 2.07649603e-01, 2.17900440e-01,
          2.09863320e-01, 1.48322105e-01, 1.49619952e-01, 2.17900440e-01,
          2.17900440e-01, 1.37187406e-01, 1.25142038e-01, 1.93057999e-01,
          1.84269279e-01, 2.17900440e-01, 2.17900440e-01, 2.17900440e-01,
          1.33378401e-01, 1.19743906e-01, 9.44604278e-02, 4.92632650e-02,
          1.18044317e-01, 1.51144311e-01, 1.48037508e-01, 1.40091166e-01,
          1.33538783e-01, 1.32510170e-01, 2.29599342e-01, 2.29599342e-01,
          1.23418584e-01, 1.41987279e-01, 1.15925819e-01, 7.74837062e-02,
          7.90492073e-02, 1.16655283e-01, 2.29599342e-01, 2.29599342e-01,
          1.36568800e-01, 8.61047730e-02, 2.11100027e-01, 1.76466793e-01,
          2.09006518e-01, 2.28210494e-01, 2.18295738e-01, 1.55761257e-01,
          2.29599342e-01, 2.29599342e-01, 2.05207169e-01, 1.86388001e-01,
          2.02665493e-01, 1.44671246e-01, 1.37002245e-01, 1.49860710e-01,
          1.05648369e-01, 1.50362566e-01, 2.38363087e-01, 1.32434115e-01,
          9.60953906e-02, 5.66846393e-02, 8.56453106e-02, 7.59051368e-02,
          1.00510493e-01, 9.48130041e-02, 5.63501008e-02, 8.82033333e-02,
          1.57660171e-01, 2.39104941e-01, 2.09892139e-01, 2.39104941e-01,
          1.30032852e-01, 1.35915115e-01, 1.61014959e-01, 2.13908717e-01,
          2.39104941e-01, 2.01157779e-01, 1.02324404e-01, 1.30198136e-01,
          1.00485906e-01, 1.03020698e-01, 1.64228633e-01, 2.03336760e-01,
          1.39496043e-01, 1.78430766e-01, 2.39104941e-01, 2.39104941e-01,
          1.96952373e-01, 2.38232866e-01, 1.68219686e-01, 2.00019524e-01,
          3.24227393e-01, 1.26250982e-02, 7.83645781e-04, 4.25044820e-03,
          3.06293857e-03, 0., 1.21670259e-04, 1.81206025e-03,
          3.24227393e-01, 3.24227393e-01, 8.23443681e-02, 5.36940508e-02,
          6.00647852e-02, 4.51318994e-02, 9.22064064e-05, 4.22552601e-02,
          1.43443327e-02, 3.24227393e-01, 3.24227393e-01, 2.70920247e-02,
          2.21984484e-03, 1.30444290e-02, 9.71208327e-03, 1.20390987e-03,
          3.12938588e-03, 1.25865340e-02, 2.28786439e-01, 3.24227393e-01,
          1.43675864e-01, 1.22093000e-01, 1.80499196e-01, 1.44264996e-01,
          6.56128954e-03, 2.53936291e-01, 1.90843806e-01, 3.24227393e-01,
          2.81936109e-01, 9.69880372e-02, 5.09958640e-02, 1.82481818e-02,
          1.98900923e-02, 3.55332084e-02, 7.40954280e-02, 2.84142923e-02,
          2.81936109e-01, 2.81936109e-01, 2.42234960e-01, 1.00448385e-01,
          1.77570041e-02, 2.67741270e-02, 6.50424883e-02, 1.55108437e-01,
          1.55446976e-01, 2.81936109e-01, 2.81936109e-01, 1.19817674e-01,
          8.22904035e-02, 5.59953600e-02, 6.17254935e-02, 2.04007886e-02,
          2.06590399e-01, 2.12589338e-01, 2.81936109e-01, 2.81936109e-01,
          1.99964494e-01, 5.24014533e-02, 7.65689183e-03, 8.17670077e-02,
          6.53602779e-02, 1.36905059e-01, 1.72845542e-01, 2.81936109e-01,
          2.81692624e-01, 2.73057818e-01, 1.10521764e-01, 6.15642667e-02,
          9.85325426e-02, 5.22805452e-02, 1.42859861e-01, 1.53532118e-01,
          2.81692624e-01, 2.81692624e-01, 2.20594198e-01, 1.39825135e-01,
          1.15114741e-01, 1.16694331e-01, 7.63208494e-02, 7.95174465e-02,
          5.27244210e-02, 2.32919037e-01, 2.81692624e-01, 1.83619082e-01,
          3.66461091e-02, 4.10115719e-02, 1.85965061e-01, 8.74189436e-02,
          7.45849758e-02, 7.56982863e-02, 2.81692624e-01, 2.81692624e-01,
          1.43213451e-01, 5.14169484e-02, 5.18482924e-02, 1.65940210e-01,
          6.02738559e-02, 3.88715677e-02, 3.73029150e-02, 2.44250357e-01,
          2.35987470e-01, 1.97354600e-01, 1.81707531e-01, 1.51211008e-01,
          1.00176953e-01, 1.67674005e-01, 1.42852724e-01, 2.23495990e-01,
          2.46647030e-01, 2.46647030e-01, 1.53407589e-01, 1.00463770e-01,
          1.85484439e-01, 1.80485368e-01, 1.91319093e-01, 1.96048871e-01,
          2.46647030e-01, 2.46647030e-01, 2.04113930e-01, 1.35494739e-01,
          6.39721155e-02, 3.39785367e-02, 8.99282247e-02, 8.68908614e-02,
          4.35107760e-02, 9.01425332e-02, 2.37984836e-01, 2.46647030e-01,
          9.92835090e-02, 3.89975458e-02, 3.04962266e-02, 7.76157603e-02,
          1.15608774e-01, 7.10371733e-02, 1.16397932e-01, 2.46647030e-01,
          2.45140597e-01, 1.21872127e-01, 6.18656836e-02, 1.15206748e-01,
          1.58066347e-01, 1.39983237e-01, 1.91638187e-01, 2.10930094e-01,
          2.45140597e-01, 2.45140597e-01, 2.38585711e-01, 1.43230289e-01,
          1.37203559e-01, 1.83372587e-01, 1.38875335e-01, 2.45140597e-01,
          2.40562379e-01, 2.45140597e-01, 2.45140597e-01, 8.14601704e-02,
          2.09741108e-02, 2.00647861e-02, 5.40687144e-02, 4.10507955e-02,
          9.05091614e-02, 1.05112650e-01, 2.45140597e-01, 2.45140597e-01,
          1.15933158e-01, 6.17803521e-02, 4.05059569e-02, 5.34479246e-02,
          3.87220383e-02, 1.24084853e-01, 1.48093075e-01, 2.45140597e-01,
          2.31240854e-01, 2.31240854e-01, 2.24600673e-01, 1.06230311e-01,
          1.82020426e-01, 1.06831811e-01, 1.20642148e-01, 1.44182548e-01,
          2.31240854e-01, 2.04048455e-01, 2.31240854e-01, 2.31240854e-01,
          1.66424036e-01, 1.63577422e-01, 1.81002319e-01, 1.25619277e-01,
          1.51692480e-01, 1.92201957e-01, 2.31240854e-01, 2.06240609e-01,
          1.55688018e-01, 5.43808229e-02, 9.28911567e-02, 3.60929258e-02,
          3.96820456e-02, 6.47868514e-02, 2.31240854e-01, 1.40716314e-01,
          1.77279085e-01, 1.66252539e-01, 1.07561260e-01, 1.86660275e-01,
          1.56131461e-01, 9.50657651e-02, 7.85366371e-02, 1.63959131e-01,
          1.34161249e-01, 1.78926185e-01, 1.22609563e-01, 1.12683877e-01,
          6.83499426e-02, 1.47183552e-01, 1.14932679e-01, 1.85211092e-01,
          1.50606379e-01, 1.89226568e-01, 2.00410768e-01, 1.93620756e-01,
          2.16165066e-01, 2.44146571e-01, 2.16258794e-01, 1.52395070e-01,
          1.36736706e-01, 1.33730918e-01, 1.05623700e-01, 1.46182343e-01,
          9.45552364e-02, 1.38232887e-01, 1.61352649e-01, 1.41002536e-01,
          1.09283075e-01, 1.30891189e-01, 1.10775366e-01, 1.69510901e-01,
          2.44146571e-01, 1.94199145e-01, 2.44146571e-01, 2.44146571e-01,
          2.38130197e-01, 1.42467052e-01, 1.07900918e-01, 1.23145752e-01,
          2.42253765e-01, 2.55934466e-02, 7.80779822e-03, 1.05661061e-02,
          6.64843479e-03, 6.50049374e-03, 9.56754014e-03, 8.99718851e-02,
          2.97486544e-01, 2.47061223e-01, 7.52734914e-02, 5.56621216e-02,
          9.89233330e-02, 9.09393951e-02, 2.23834030e-02, 2.24629894e-01,
          2.83019692e-01, 3.19356143e-01, 2.85361141e-01, 1.11703752e-02,
          5.35436068e-03, 2.61239125e-03, 1.30992313e-03, 4.51262156e-03,
          8.01251177e-03, 2.94056743e-01, 3.25129688e-01, 1.52150229e-01,
          1.96151976e-02, 1.13696316e-02, 7.71621428e-03, 1.93828512e-02,
          5.64248636e-02, 8.36692974e-02, 3.25129688e-01, 3.25129688e-01,
          1.15616836e-01, 4.34325226e-02, 6.91495836e-02, 3.83412316e-02,
          1.18745521e-01, 7.15457499e-02, 2.11970165e-01, 2.40000635e-01,
          2.32272774e-01, 1.37437880e-01, 8.86963159e-02, 1.39960244e-01,
          4.33957614e-02, 2.40000635e-01, 1.82869792e-01, 2.40000635e-01,
          1.74198464e-01, 1.62399396e-01, 1.01578489e-01, 5.09971455e-02,
          1.77740321e-01, 4.38083708e-02, 1.26214772e-01, 1.72780171e-01,
          7.59755373e-02, 1.36608019e-01, 2.40000635e-01, 2.40000635e-01,
          2.33713984e-01, 2.40000635e-01, 1.26258612e-01, 2.40000635e-01,
          2.32561737e-01, 1.02640763e-01, 8.35083947e-02, 2.40000635e-01,
          1.86954573e-01, 9.32077989e-02, 9.96366143e-02, 8.15572813e-02,
          2.63844609e-01, 1.16291836e-01, 1.07006855e-01, 6.51647002e-02,
          1.73012540e-01, 1.72499523e-01, 1.07416600e-01, 6.36882111e-02,
          8.66278335e-02, 1.81883186e-01, 5.81514761e-02, 5.33283129e-02,
          6.76471889e-02, 1.99651480e-01, 2.79036254e-01, 2.79036254e-01,
          2.79036254e-01, 8.39133486e-02, 1.81688488e-01, 6.53114021e-02,
          4.98766080e-02, 9.21231508e-02, 2.79036254e-01, 2.66775399e-01,
          1.87990263e-01, 8.07208568e-02, 5.59727736e-02, 1.33424357e-01,
          1.90388426e-01, 1.75689489e-01, 1.61098927e-01, 2.79036254e-01,
          1.69101015e-01, 1.63236380e-01, 1.02710567e-01, 1.59262538e-01,
          2.65598357e-01, 1.00285679e-01, 7.96990320e-02, 1.21775508e-01,
          1.98019326e-01, 1.81336418e-01, 5.62155060e-02, 7.04872310e-02,
          7.88859054e-02, 9.93331969e-02, 7.76142627e-02, 4.48879823e-02,
          2.77595110e-02, 1.75398111e-01, 2.64919758e-01, 1.46169811e-01,
          9.06658322e-02, 1.69291750e-01, 3.01608771e-01, 3.01608771e-01,
          3.01608771e-01, 3.01608771e-01, 3.01608771e-01, 4.32814509e-02,
          5.25081493e-02, 7.03455582e-02, 8.27297717e-02, 1.72345087e-01,
          1.05657481e-01, 1.49056152e-01, 6.16840050e-02, 3.97929661e-02,
          3.02165806e-01, 1.57397553e-01, 1.14899620e-01, 8.26773196e-02,
          1.36070311e-01, 7.23722428e-02, 1.42837614e-01, 1.00736365e-01,
          3.02165806e-01, 3.02165806e-01, 2.30199933e-01, 1.55189782e-01,
          1.69120133e-01, 1.37103751e-01, 5.40442690e-02, 1.55327231e-01,
          1.87667459e-01, 3.02165806e-01, 9.53278095e-02, 1.12421729e-01,
          1.33986592e-01, 8.03137645e-02, 1.38841107e-01, 1.21303916e-01,
          1.03344396e-01, 7.66311064e-02, 7.51456320e-02, 1.31924689e-01,
          1.43141642e-01, 1.64922625e-01, 2.30067104e-01, 2.23733827e-01,
          1.64169282e-01, 1.25571728e-01, 1.20655984e-01, 1.35018364e-01,
          2.55413920e-01, 1.81553796e-01, 1.12652898e-01, 1.19204588e-01,
          1.60312012e-01, 6.63031787e-02, 4.88088503e-02, 7.46635571e-02,
          2.55413920e-01, 2.55413920e-01, 1.81440666e-01, 1.29266307e-01,
          2.55413920e-01, 2.55413920e-01, 2.55413920e-01, 2.01273650e-01,
          1.26320854e-01, 2.55413920e-01, 8.81857127e-02, 7.06527978e-02,
          7.06443563e-02, 1.58502877e-01, 1.50361300e-01, 1.17062509e-01,
          5.77109493e-02, 8.98259431e-02, 1.09810278e-01, 1.39272630e-01,
          7.40025118e-02, 6.48789480e-02, 1.47460207e-01, 2.55413920e-01,
          1.90427527e-01, 1.26873717e-01, 1.49079084e-01, 2.08519310e-01,
          8.96232948e-02, 8.78491253e-02, 8.45927373e-02, 9.56070200e-02,
          1.91518322e-01, 9.58045200e-02, 4.43654098e-02, 2.85722055e-02,
          5.76358438e-02, 1.11364983e-01, 2.46349677e-01, 2.75719136e-01,
          2.90901303e-01, 2.90901303e-01, 1.76417053e-01, 4.12609763e-02,
          2.05686186e-02, 7.58761168e-02, 4.07131128e-02, 9.76530686e-02,
          1.70652926e-01, 1.29692793e-01, 2.52322346e-01, 6.82376921e-02,
          8.38436410e-02, 3.99404056e-02, 4.49140929e-02, 6.42130077e-02,
          2.71920621e-01, 2.90901303e-01, 2.90901303e-01, 2.90901303e-01,
          2.62992978e-01, 1.26719564e-01, 3.90816554e-02, 3.05155721e-02,
          3.35474193e-01, 2.68205516e-02, 8.76069907e-03, 7.65020680e-03,
          1.50221698e-02, 8.69378075e-03, 2.19352189e-02, 1.71246320e-01,
          3.35474193e-01, 2.92297542e-01, 4.08415347e-02, 1.31035065e-02,
          9.19514522e-03, 1.39420135e-02, 4.99632768e-02, 3.75102162e-02,
          2.41341874e-01, 3.35474193e-01, 3.35474193e-01, 6.97135255e-02,
          2.32436210e-02, 2.01897491e-02, 2.91314758e-02, 1.82328951e-02,
          3.13252136e-02, 4.44058925e-02, 3.35474193e-01, 3.35474193e-01,
          1.02860980e-01, 1.30647961e-02, 1.14202229e-02, 2.53940802e-02,
          4.81081121e-02, 3.80026288e-02, 5.43362834e-02, 3.35474193e-01,
          2.74367452e-01, 5.35546318e-02, 1.02662869e-01, 3.01755108e-02,
          5.21296896e-02, 1.87259167e-01, 4.17414755e-02, 1.54461950e-01,
          2.98797429e-01, 2.98797429e-01, 2.17433676e-01, 2.98797429e-01,
          8.37144405e-02, 9.82965529e-02, 1.93971649e-01, 2.75958572e-02,
          1.16061121e-01, 2.98797429e-01, 2.98797429e-01, 3.53852622e-02,
          1.25666242e-03, 2.72516557e-03, 1.62224751e-02, 4.12016697e-02,
          2.90334336e-02, 4.46789898e-02, 2.98797429e-01, 2.98797429e-01,
          4.10065874e-02, 2.08262317e-02, 2.04797578e-03, 1.06226644e-02,
          3.34129035e-02, 2.84904335e-02, 6.13923147e-02, 2.98797429e-01,
          2.77264208e-01, 2.52138078e-01, 2.66047686e-01, 4.49392870e-02,
          4.36995327e-02, 3.61735411e-02, 2.00515520e-02, 8.49100500e-02,
          2.77264208e-01, 1.77615061e-01, 1.11196533e-01, 6.85997233e-02,
          3.42553742e-02, 1.47569925e-01, 2.77264208e-01, 2.77264208e-01,
          1.77969977e-01, 2.77264208e-01, 2.77264208e-01, 5.35332896e-02,
          2.92891134e-02, 1.35940732e-02, 1.01595856e-02, 1.76671278e-02,
          2.82945111e-02, 6.93873614e-02, 2.74129629e-01, 2.69150198e-01,
          6.58333227e-02, 2.78544482e-02, 3.23529877e-02, 8.66851434e-02,
          1.36149421e-01, 2.47263312e-01, 1.43577173e-01, 1.18498981e-01,
          5.35965078e-02, 1.73509568e-02, 2.36650780e-02, 3.20382267e-02,
          2.34196335e-01, 3.30489606e-01, 3.30489606e-01, 1.60513774e-01,
          1.34919494e-01, 2.12721694e-02, 9.81627498e-03, 1.54872043e-02,
          1.68255717e-02, 7.91818276e-02, 1.25824124e-01, 2.37018496e-01,
          6.28295392e-02, 1.92518849e-02, 1.64953128e-01, 4.31397483e-02,
          2.04425491e-02, 2.52237972e-02, 1.24709874e-01, 2.67583996e-01,
          3.30489606e-01, 2.97053665e-01, 5.19310683e-02, 8.40232596e-02,
          2.20597349e-02, 1.47366980e-02, 1.09705254e-02, 4.64625321e-02,
          1.47854283e-01, 3.30489606e-01, 3.30489606e-01, 1.52367592e-01,
          7.00749084e-02, 3.64348926e-02, 5.69000095e-02, 4.51240279e-02,
          8.15870613e-02, 8.67527872e-02, 6.99136928e-02, 5.96377514e-02,
          6.99052662e-02, 9.19849426e-02, 4.85696644e-02, 7.11722076e-02,
          8.58092830e-02, 1.37395680e-01, 1.10406570e-01, 5.83598018e-02,
          8.16962793e-02, 1.19963288e-01, 2.55376637e-01, 4.48197685e-02,
          5.98175712e-02, 3.46629173e-02, 5.41616492e-02, 1.07503772e-01,
          3.48960429e-01, 3.48960429e-01, 3.48960429e-01, 3.48960429e-01,
          2.26980239e-01, 2.12100849e-01, 7.64876008e-02, 1.15301587e-01,
          6.62149340e-02, 9.35794860e-02, 2.33546793e-01, 3.48960429e-01,
          2.55552940e-02, 2.35584322e-02, 2.67394502e-02, 4.88459542e-02,
          7.43312016e-02, 4.11260612e-02, 2.67159324e-02, 4.31925245e-02,
          4.49868627e-02, 4.47071455e-02, 6.39389157e-02, 1.24205031e-01,
          1.14439040e-01, 1.50819153e-01, 4.55827601e-02, 3.80605124e-02,
          5.87555468e-02, 4.42993455e-02, 3.38330120e-01, 3.37049544e-01,
          2.30772913e-01, 5.43748848e-02, 7.35784695e-02, 3.06438338e-02,
          2.36011930e-02, 3.39914337e-02, 1.64786845e-01, 3.38330120e-01,
          3.38330120e-01, 3.38330120e-01, 3.23913842e-01, 1.25767618e-01,
          7.51312077e-02, 3.46806422e-02, 9.61078554e-02, 3.38330120e-01,
          4.78466786e-02, 1.17137015e-01, 2.50759482e-01, 1.40246734e-01,
          2.06275806e-01, 4.55826260e-02, 1.09366976e-01, 4.69882041e-02,
          1.71613749e-02, 9.09812972e-02, 2.36283675e-01, 2.50759482e-01,
          2.50759482e-01, 2.50759482e-01, 1.52345940e-01, 1.57385752e-01,
          5.42488210e-02, 1.23798624e-02, 1.94473028e-01, 2.50759482e-01,
          2.50759482e-01, 2.50759482e-01, 1.58922791e-01, 8.02604780e-02,
          4.92889881e-02, 6.10878803e-02, 1.43600538e-01, 1.31075680e-01,
          1.49504334e-01, 2.50759482e-01, 2.50759482e-01, 2.50759482e-01,
          1.09218843e-01, 7.88337141e-02, 4.16389443e-02, 5.50191775e-02,
          3.40272635e-01, 7.29020983e-02, 3.51751372e-02, 1.82455238e-02,
          1.21923089e-02, 1.99551973e-02, 2.43640356e-02, 4.70157899e-02,
          3.40272635e-01, 3.40272635e-01, 9.26072672e-02, 1.59587320e-02,
          3.81609332e-03, 2.24219915e-02, 6.54727444e-02, 5.31144291e-02,
          9.93861258e-02, 3.40272635e-01, 3.40272635e-01, 6.57434389e-02,
          5.24254590e-02, 2.88884025e-02, 4.00368273e-02, 3.07240542e-02,
          2.20676437e-02, 4.66521755e-02, 3.40272635e-01, 3.40272635e-01,
          5.58805056e-02, 4.03935686e-02, 2.22078580e-02, 3.76131199e-02,
          4.66344543e-02, 5.84022216e-02, 9.15631503e-02, 3.40272635e-01,
          3.44662637e-01, 5.67992292e-02, 1.72629091e-03, 2.43515172e-03,
          2.26203520e-02, 4.21677902e-02, 4.67134528e-02, 6.85424954e-02,
          3.44662637e-01, 3.44662637e-01, 3.18193473e-02, 4.22983570e-03,
          6.99141936e-04, 7.62299728e-03, 1.01012802e-02, 2.81873569e-02,
          4.33975942e-02, 3.44662637e-01, 3.44662637e-01, 4.64390106e-02,
          3.17926705e-02, 1.41638406e-02, 2.17477381e-02, 3.12126745e-02,
          6.72115833e-02, 7.50295818e-02, 3.44662637e-01, 3.44662637e-01,
          3.43623720e-02, 2.65529417e-02, 1.59065723e-02, 1.71276890e-02,
          1.87028535e-02, 6.82046264e-02, 8.68787244e-02, 3.44662637e-01,
          3.33583683e-01, 5.63177615e-02, 1.10151786e-02, 6.44015614e-03,
          1.91638712e-03, 6.12126756e-03, 2.37303153e-02, 6.17048815e-02,
          3.33583683e-01, 3.33583683e-01, 1.06997922e-01, 1.76036078e-02,
          1.92132331e-02, 2.09489260e-02, 2.38167290e-02, 8.56985524e-02,
          1.12848073e-01, 3.33583683e-01, 3.33583683e-01, 2.69285273e-02,
          1.23137804e-02, 1.63572785e-02, 1.74278878e-02, 2.87533496e-02,
          7.86688700e-02, 1.09143004e-01, 3.33583683e-01, 3.33583683e-01,
          5.02819344e-02, 1.25872009e-02, 1.40407458e-02, 6.01601042e-02,
          5.44146858e-02, 1.29307225e-01, 1.37561783e-01, 3.33583683e-01,
          2.95471311e-01, 8.02016109e-02, 1.84173286e-02, 1.46581521e-02,
          2.12051552e-02, 4.56215590e-02, 2.95471311e-01, 2.06891522e-01,
          2.47117013e-01, 2.56831348e-01, 7.26547465e-02, 2.42030118e-02,
          1.18858684e-02, 1.32677779e-02, 5.05876057e-02, 2.95471311e-01,
          2.95471311e-01, 2.95471311e-01, 2.21155673e-01, 3.01988292e-02,
          9.18456260e-03, 1.49551313e-02, 5.51755130e-02, 6.70428425e-02,
          8.36634040e-02, 9.58909467e-02, 2.95471311e-01, 1.80381924e-01,
          4.38198075e-02, 3.71802337e-02, 9.57846195e-02, 5.87179549e-02,
          8.01207796e-02, 1.57952115e-01, 2.10091278e-01, 2.95471311e-01,
          1.68932140e-01, 3.34842391e-02, 2.36777123e-02, 1.68449879e-02,
          1.47886425e-02, 2.46395543e-02, 2.75269598e-01, 2.75269598e-01,
          2.75269598e-01, 2.75269598e-01, 1.79844156e-01, 1.91196889e-01,
          4.27854545e-02, 3.87207717e-02, 1.00553788e-01, 7.86475316e-02,
          1.62386656e-01, 2.75269598e-01, 1.19879104e-01, 3.35335843e-02,
          6.93687573e-02, 1.25428960e-01, 3.68874185e-02, 4.40550558e-02,
          1.12375960e-01, 2.29127601e-01, 2.75269598e-01, 2.75269598e-01,
          1.71967044e-01, 2.19653711e-01, 9.91472304e-02, 4.84605916e-02,
          1.47447303e-01, 1.07012227e-01, 1.31058246e-01, 2.75269598e-01,
          2.60102212e-01, 2.60102212e-01, 2.21158549e-01, 4.15457264e-02,
          7.34638050e-02, 9.54730511e-02, 8.25846195e-02, 1.21311042e-02,
          1.53141797e-01, 2.60102212e-01, 2.60102212e-01, 2.46520385e-01,
          8.17393512e-02, 8.98969099e-02, 7.27108419e-02, 8.51269364e-02,
          4.10566330e-02, 1.97697788e-01, 2.60102212e-01, 1.63489759e-01,
          1.41909525e-01, 4.29891720e-02, 1.16151176e-01, 1.82115525e-01,
          2.60102212e-01, 1.97376031e-02, 1.99483931e-01, 1.86185941e-01,
          1.79199398e-01, 1.11368984e-01, 4.70281020e-02, 1.63008451e-01,
          1.50463223e-01, 2.60102212e-01, 7.63164759e-02, 1.65643603e-01,
          2.41305932e-01, 2.41305932e-01, 2.41305932e-01, 2.19161302e-01,
          1.55154094e-01, 1.18964866e-01, 3.09652742e-02, 1.03087217e-01,
          2.41305932e-01, 1.34934559e-01, 1.33846417e-01, 2.41305932e-01,
          2.41305932e-01, 2.01316863e-01, 1.20631278e-01, 4.63141464e-02,
          5.08111268e-02, 1.54604837e-01, 2.30606958e-01, 1.40906021e-01,
          1.04423292e-01, 6.16912991e-02, 1.14537701e-01, 3.92240994e-02,
          2.41305932e-01, 1.14840269e-01, 2.41305932e-01, 2.41305932e-01,
          2.04455003e-01, 1.14254408e-01, 1.11840680e-01, 8.93063322e-02,
          1.67214945e-02, 1.96872707e-02, 7.76598528e-02, 2.41305932e-01 ]
      - [ 2.76771337e-01, 1.90566719e-01, 3.49506550e-02, 5.45444014e-03,
          2.14947499e-02, 2.13334821e-02, 6.22262508e-02, 1.61473706e-01,
          2.76771337e-01, 2.76771337e-01, 1.96645260e-01, 1.02889135e-01,
          1.35008153e-02, 4.36895266e-02, 2.01408248e-02, 4.61032651e-02,
          2.34805375e-01, 2.76771337e-01, 2.76771337e-01, 1.86448425e-01,
          3.70735191e-02, 5.34800161e-03, 6.84950873e-03, 1.10106068e-02,
          4.94830683e-02, 1.75156265e-01, 2.76771337e-01, 2.76771337e-01,
          2.39403620e-01, 1.24404706e-01, 2.34829169e-02, 1.24416910e-02,
          2.44212020e-02, 7.77776688e-02, 2.39518076e-01, 2.76771337e-01,
          1.76832467e-01, 2.03693569e-01, 1.14759825e-01, 5.11856712e-02,
          5.75750694e-02, 2.54569966e-02, 7.91832656e-02, 1.53282195e-01,
          1.73101977e-01, 2.45105416e-01, 2.45105416e-01, 1.91956654e-01,
          1.23853996e-01, 7.78026506e-02, 7.34862760e-02, 1.80774093e-01,
          1.40202135e-01, 2.45105416e-01, 2.45105416e-01, 2.45105416e-01,
          1.56798556e-01, 3.64608429e-02, 2.15478577e-02, 5.06726205e-02,
          1.07798643e-01, 1.51902720e-01, 1.47591129e-01, 2.45105416e-01,
          2.45105416e-01, 2.45105416e-01, 1.50043786e-01, 5.84207028e-02,
          5.10078706e-02, 1.72781602e-01, 2.11739853e-01, 2.45105416e-01,
          2.42936492e-01, 2.46432811e-01, 2.19735265e-01, 1.06559969e-01,
          6.77142292e-02, 1.48434877e-01, 1.40444174e-01, 1.03971481e-01,
          1.67826891e-01, 2.46432811e-01, 2.32431099e-01, 1.79024816e-01,
          1.08530521e-01, 1.22972518e-01, 1.06223114e-01, 4.80161197e-02,
          5.31252213e-02, 1.23703413e-01, 2.46432811e-01, 2.46432811e-01,
          2.46432811e-01, 1.74634129e-01, 7.49778003e-02, 7.49916434e-02,
          9.28558931e-02, 1.21199936e-01, 2.31673464e-01, 2.46432811e-01,
          2.46432811e-01, 1.50043383e-01, 7.33574927e-02, 6.34730384e-02,
          7.24859238e-02, 6.32326975e-02, 5.60119972e-02, 2.46432811e-01,
          2.41956279e-01, 1.16030246e-01, 1.38098478e-01, 1.13939904e-01,
          9.09877419e-02, 4.27805260e-02, 1.53862862e-02, 3.05881072e-02,
          1.59281179e-01, 1.79567918e-01, 1.15426317e-01, 2.71765441e-01,
          2.71765441e-01, 2.68604249e-01, 8.03406015e-02, 2.94081308e-02,
          1.85390562e-02, 1.53810322e-01, 2.71765441e-01, 1.80837572e-01,
          1.83882460e-01, 9.75278839e-02, 1.03589006e-01, 6.86394945e-02,
          2.00827345e-02, 4.34940495e-02, 2.45183572e-01, 2.71765441e-01,
          2.71765441e-01, 2.71765441e-01, 2.03984514e-01, 1.62842199e-01,
          1.02712817e-01, 2.49270424e-02, 2.15146672e-02, 1.75377458e-01,
          2.54522920e-01, 1.07662238e-01, 2.22805157e-01, 2.20977157e-01,
          2.27294669e-01, 4.35502529e-02, 3.19454074e-02, 1.91269554e-02,
          1.38556421e-01, 3.15995157e-01, 1.03967249e-01, 2.27644164e-02,
          3.01644038e-02, 5.44251464e-02, 1.91377234e-02, 2.36135665e-02,
          6.70544207e-02, 2.28951216e-01, 3.15995157e-01, 3.15995157e-01,
          2.07694396e-01, 7.69386515e-02, 6.75205216e-02, 3.40788849e-02,
          2.31866110e-02, 1.52215185e-02, 2.51895934e-01, 3.15995157e-01,
          2.19395190e-01, 2.46153064e-02, 1.11724185e-02, 2.63700373e-02,
          1.00262631e-02, 1.45986527e-02, 8.17194805e-02, 3.15995157e-01,
          1.99620485e-01, 1.56027704e-01, 1.03480853e-01, 5.66208102e-02,
          7.09136128e-02, 3.92393023e-02, 5.47928512e-02, 1.87908113e-01,
          1.81348577e-01, 2.29608640e-01, 2.29608640e-01, 2.29608640e-01,
          9.45379958e-02, 1.45426348e-01, 1.08073778e-01, 9.70019028e-02,
          2.29608640e-01, 2.29608640e-01, 2.29608640e-01, 1.37518778e-01,
          5.79637848e-02, 4.27553058e-02, 5.22126332e-02, 4.27420735e-02,
          5.14283068e-02, 2.29608640e-01, 2.29608640e-01, 1.10191718e-01,
          2.29608640e-01, 1.99043021e-01, 1.46211475e-01, 2.19706476e-01,
          1.67756513e-01, 2.02961504e-01, 2.29608640e-01, 2.03498930e-01,
          2.21607924e-01, 1.87696710e-01, 1.78770125e-01, 6.84965923e-02,
          1.39474511e-01, 1.01840667e-01, 1.42185733e-01, 1.50013417e-01,
          2.20117658e-01, 1.22271545e-01, 5.99612072e-02, 7.11603686e-02,
          7.35849589e-02, 1.59517974e-01, 1.18511930e-01, 2.21607924e-01,
          1.90161586e-01, 1.57172620e-01, 8.70827287e-02, 1.54985845e-01,
          1.62149265e-01, 1.37019619e-01, 2.21607924e-01, 2.15849116e-01,
          2.21607924e-01, 1.86237723e-01, 1.48705870e-01, 8.26707631e-02,
          1.19954690e-01, 2.21607924e-01, 2.12639913e-01, 2.21607924e-01,
          2.07384974e-01, 2.21607924e-01, 1.28779039e-01, 1.60204381e-01,
          2.72733063e-01, 1.25584990e-01, 2.57050954e-02, 1.07907655e-03,
          4.59808623e-03, 8.96763243e-03, 4.75218147e-02, 9.48237628e-02,
          2.72733063e-01, 2.72733063e-01, 2.01522365e-01, 6.81180656e-02,
          5.32582216e-03, 6.97532436e-03, 1.17759407e-02, 6.53383508e-02,
          1.50927767e-01, 2.72733063e-01, 2.72733063e-01, 1.61398187e-01,
          6.00094646e-02, 7.03401444e-03, 1.04868971e-02, 1.15219295e-01,
          2.16959193e-01, 8.61163884e-02, 2.72733063e-01, 2.72733063e-01,
          2.66379267e-01, 7.47641250e-02, 1.59359593e-02, 3.02573480e-02,
          1.61384955e-01, 2.72733063e-01, 1.61831349e-01, 2.72733063e-01,
          2.32016489e-01, 2.17775792e-01, 8.49084258e-02, 1.26913870e-02,
          1.06060989e-02, 2.57316511e-02, 8.06029961e-02, 1.46640539e-01,
          2.21911132e-01, 2.32016489e-01, 2.32016489e-01, 2.32016489e-01,
          1.22131824e-01, 3.55744772e-02, 4.82685380e-02, 1.00877218e-01,
          1.96905330e-01, 2.20737666e-01, 2.32016489e-01, 2.32016489e-01,
          6.16040342e-02, 1.57240592e-02, 2.28724163e-02, 7.68770427e-02,
          1.52516708e-01, 2.09737331e-01, 2.32016489e-01, 2.32016489e-01,
          2.32016489e-01, 1.55382887e-01, 9.45681557e-02, 5.64658083e-02,
          9.11849737e-02, 1.84974030e-01, 2.32016489e-01, 2.32016489e-01,
          2.50921577e-01, 2.50921577e-01, 2.31282413e-01, 1.62181124e-01,
          4.80470248e-02, 5.01335859e-02, 6.60843253e-02, 1.14740342e-01,
          2.50921577e-01, 2.50921577e-01, 1.97424784e-01, 7.27445781e-02,
          5.57722487e-02, 4.40431237e-02, 5.67273796e-02, 4.73356247e-02,
          5.32521382e-02, 2.50921577e-01, 2.50921577e-01, 1.72439307e-01,
          1.41859770e-01, 1.54810131e-01, 8.81231055e-02, 9.41346511e-02,
          1.24366254e-01, 2.50921577e-01, 2.50921577e-01, 2.50921577e-01,
          1.18952662e-01, 1.11634940e-01, 1.14364319e-01, 6.71523884e-02,
          1.05680175e-01, 6.82220235e-02, 2.05356449e-01, 2.50921577e-01,
          2.88597614e-01, 2.73978770e-01, 1.65683880e-01, 1.02322444e-01,
          1.49115369e-01, 9.42336470e-02, 2.83578131e-02, 7.11026564e-02,
          2.88597614e-01, 2.88597614e-01, 2.88597614e-01, 2.63743490e-01,
          1.17274687e-01, 1.69511408e-01, 1.06947154e-01, 4.01335359e-02,
          4.29528542e-02, 1.47816986e-01, 2.68472344e-01, 9.85572562e-02,
          1.16955377e-01, 1.28886789e-01, 8.77235383e-02, 1.18500330e-01,
          7.80772641e-02, 1.66225761e-01, 1.97833240e-01, 1.72809407e-01,
          8.77401754e-02, 1.07992552e-01, 1.45662040e-01, 1.37946218e-01,
          1.51903793e-01, 1.34461626e-01, 8.58700499e-02, 1.43272862e-01,
          2.87590593e-01, 2.87590593e-01, 1.85537413e-01, 5.86363189e-02,
          1.10605396e-01, 8.89080763e-02, 8.65222141e-02, 4.23440710e-02,
          2.03102767e-01, 2.87590593e-01, 2.03280330e-01, 7.40723237e-02,
          3.75791825e-02, 1.42525241e-01, 6.64402619e-02, 8.50006714e-02,
          1.08778700e-01, 2.87590593e-01, 1.78567648e-01, 1.69404894e-01,
          1.16707340e-01, 1.23153448e-01, 1.76699743e-01, 1.41305611e-01,
          1.69601679e-01, 9.01242122e-02, 1.19740412e-01, 2.54007399e-01,
          1.90920770e-01, 2.15801060e-01, 1.07130043e-01, 2.05926225e-01,
          7.89698511e-02, 1.23452917e-01, 1.72426179e-01, 1.46073699e-01,
          1.86131030e-01, 5.61731234e-02, 3.24728452e-02, 4.94858362e-02,
          1.24911010e-01, 1.03782319e-01, 9.74286646e-02, 1.75842062e-01,
          1.90823391e-01, 5.44791445e-02, 9.81917605e-02, 1.03067681e-01,
          2.29023948e-01, 2.69022554e-01, 2.69022554e-01, 2.69022554e-01,
          2.51261026e-01, 1.51654154e-01, 9.42563117e-02, 5.50464168e-02,
          7.74610043e-02, 1.04629330e-01, 1.71958521e-01, 7.90683851e-02,
          9.65795740e-02, 1.73762396e-01, 9.23460647e-02, 9.08577591e-02,
          7.70601928e-02, 1.13426708e-01, 2.69022554e-01, 2.69022554e-01,
          2.69022554e-01, 2.69022554e-01, 1.98305354e-01, 7.25577548e-02,
          5.19714057e-02, 9.72246900e-02, 1.06594592e-01, 1.39812484e-01,
          1.87614217e-01, 2.28185087e-01, 2.28185087e-01, 1.06766514e-01,
          1.08771093e-01, 1.44219041e-01, 2.21147045e-01, 2.28185087e-01,
          1.97229162e-01, 2.10487485e-01, 2.03626975e-01, 1.92273661e-01,
          8.68017226e-02, 1.77840114e-01, 1.17585614e-01, 9.10568237e-02,
          1.06691241e-01, 1.69428304e-01, 1.48087949e-01, 2.28185087e-01,
          1.62054345e-01, 9.40733775e-02, 8.29405710e-02, 2.28185087e-01,
          2.05449015e-01, 2.28185087e-01, 1.21190377e-01, 9.12434533e-02,
          1.27368182e-01, 1.70360595e-01, 1.56999812e-01, 2.28185087e-01,
          2.38009527e-01, 1.53181598e-01, 9.52081457e-02, 2.98088696e-02,
          2.73749176e-02, 1.56459585e-01, 2.38009527e-01, 1.38081610e-01,
          2.38009527e-01, 2.38009527e-01, 2.07873836e-01, 6.43583685e-02,
          3.48393805e-02, 5.89323342e-02, 2.17412025e-01, 2.38009527e-01,
          2.38009527e-01, 2.38009527e-01, 2.00718507e-01, 1.60874143e-01,
          1.26130030e-01, 3.98362167e-02, 4.61864881e-02, 7.49935657e-02,
          9.46251675e-02, 1.21370777e-01, 1.82260990e-01, 2.30129823e-01,
          2.28784591e-01, 7.95318857e-02, 2.52317581e-02, 5.90007752e-02,
          9.69303101e-02, 1.93124399e-01, 2.38009527e-01, 2.38009527e-01,
          2.06200168e-01, 2.17246577e-01, 4.81881760e-02, 2.29899772e-02,
          3.09823584e-02, 7.91200772e-02, 1.50170758e-01, 2.17246577e-01,
          2.05326006e-01, 1.21317044e-01, 2.17246577e-01, 1.09553762e-01,
          1.21187404e-01, 9.25990641e-02, 1.29919708e-01, 1.73398018e-01,
          2.17246577e-01, 2.04208568e-01, 1.65846273e-01, 1.56733513e-01,
          6.65290356e-02, 5.79605028e-02, 7.28666037e-02, 9.39749405e-02,
          1.40078917e-01, 1.81582123e-01, 1.92036673e-01, 2.17246577e-01,
          2.04435647e-01, 1.84818074e-01, 2.17246577e-01, 2.17246577e-01,
          2.17246577e-01, 2.17246577e-01, 1.74700662e-01, 2.17246577e-01,
          7.85770938e-02, 1.15533814e-01, 6.72902539e-02, 1.22410156e-01,
          1.02042392e-01, 9.28669125e-02, 1.26445085e-01, 2.17071086e-01,
          2.02675313e-01, 8.95767063e-02, 7.22302794e-02, 5.36674187e-02,
          6.06630370e-02, 8.57985467e-02, 9.11287218e-02, 1.38408184e-01,
          2.30029628e-01, 1.88457698e-01, 2.02957898e-01, 1.71111286e-01,
          1.11307241e-01, 2.13333070e-01, 2.23673388e-01, 1.88629359e-01,
          2.30029628e-01, 2.30029628e-01, 2.30029628e-01, 7.66702816e-02,
          1.82651147e-01, 1.28549114e-01, 1.60513386e-01, 2.30029628e-01,
          2.10953325e-01, 2.30029628e-01, 2.30029628e-01, 1.86803490e-01,
          1.03285380e-01, 5.10392487e-02, 6.08605891e-02, 6.20419309e-02,
          6.57465756e-02, 1.29198253e-01, 1.82908222e-01, 2.42382795e-01,
          2.06655815e-01, 1.61129266e-01, 7.07162917e-02, 9.59706381e-02,
          8.70342553e-02, 9.15885046e-02, 1.49598658e-01, 1.39227554e-01,
          1.05116591e-01, 1.63222238e-01, 7.24063069e-02, 1.75204366e-01,
          1.67009041e-01, 1.64548561e-01, 2.42382795e-01, 2.42382795e-01,
          2.42382795e-01, 2.42382795e-01, 2.03365058e-01, 1.65160716e-01,
          1.47246227e-01, 1.74615219e-01, 1.21763758e-01, 1.39100969e-01,
          2.42382795e-01, 2.14371890e-01, 2.25737587e-01, 2.20641837e-01,
          1.61359251e-01, 1.27226844e-01, 9.60173607e-02, 7.55471662e-02,
          1.04548432e-01, 1.60860106e-01, 1.43774897e-01, 7.49190673e-02,
          1.34278387e-01, 2.19144106e-01, 1.46928072e-01, 1.88911676e-01,
          9.58078802e-02, 7.29930773e-02, 1.01598054e-01, 9.41521674e-02,
          1.18642509e-01, 1.78295493e-01, 1.82817593e-01, 1.85111851e-01,
          1.88259125e-01, 1.44977614e-01, 1.30068541e-01, 2.19144106e-01,
          2.19144106e-01, 2.19144106e-01, 2.19144106e-01, 2.19144106e-01,
          1.74401850e-01, 1.69840902e-01, 1.73670202e-01, 1.09418847e-01,
          2.19144106e-01, 2.19144106e-01, 2.19144106e-01, 2.19144106e-01,
          1.35831758e-01, 7.86091909e-02, 9.59043577e-02, 9.65611339e-02,
          1.10755488e-01, 9.12920013e-02, 9.73953307e-02, 1.25121593e-01,
          1.13200836e-01, 1.36421755e-01, 1.17405668e-01, 9.56248492e-02,
          2.34367803e-01, 2.34367803e-01, 2.34367803e-01, 2.08735943e-01,
          1.48288682e-01, 6.32219315e-02, 2.02763841e-01, 1.53522506e-01,
          1.05657637e-01, 1.05587170e-01, 1.06305845e-01, 1.78847328e-01,
          1.84856206e-01, 1.02182180e-01, 2.06168309e-01, 1.88441068e-01,
          1.94672629e-01, 2.34367803e-01, 2.34367803e-01, 2.34367803e-01,
          2.34367803e-01, 2.31566221e-01, 1.61774874e-01, 1.72492996e-01,
          1.22329086e-01, 1.20366171e-01, 9.05002207e-02, 1.41176626e-01,
          2.21807390e-01, 1.68188408e-01, 8.74076635e-02, 1.07049257e-01,
          6.50169104e-02, 2.21807390e-01, 1.88966364e-01, 1.51104406e-01,
          9.17084143e-02, 1.43803865e-01, 6.89848810e-02, 1.20249815e-01,
          1.82552412e-01, 1.87541083e-01, 1.42549619e-01, 1.25705242e-01,
          1.44512087e-01, 1.61618531e-01, 2.21807390e-01, 1.81139782e-01,
          1.96969941e-01, 1.56951413e-01, 2.09248617e-01, 2.21807390e-01,
          1.97292194e-01, 1.37923554e-01, 9.66428891e-02, 2.19075128e-01,
          1.74425244e-01, 2.21807390e-01, 2.21807390e-01, 2.21807390e-01,
          1.07164927e-01, 1.82330459e-01, 2.61135668e-01, 3.19948494e-02,
          6.63363859e-02, 6.25219122e-02, 4.27274443e-02, 6.67599291e-02,
          9.61190239e-02, 1.94519669e-01, 2.41430655e-01, 2.13964522e-01,
          1.56524591e-02, 4.02805656e-02, 8.28755051e-02, 9.41618532e-02,
          1.82240799e-01, 2.58637369e-01, 2.20621347e-01, 1.82699174e-01,
          2.61135668e-01, 9.32833180e-02, 1.62841156e-01, 9.65230539e-02,
          1.26098126e-01, 1.66871965e-01, 2.27385387e-01, 2.61135668e-01,
          1.72434688e-01, 2.02378288e-01, 3.36353928e-02, 6.63577393e-02,
          1.30414382e-01, 1.74430281e-01, 2.22993582e-01, 2.61135668e-01,
          1.48852199e-01, 1.10403426e-01, 7.70366564e-02, 6.73253536e-02,
          6.66534156e-02, 7.80768320e-02, 1.39465407e-01, 1.60069644e-01,
          1.89465746e-01, 2.58118480e-01, 1.83696285e-01, 2.37821519e-01,
          2.55989045e-01, 1.92522407e-01, 1.14972070e-01, 1.82237759e-01,
          1.11167677e-01, 1.84693858e-01, 2.58118480e-01, 1.37405455e-01,
          4.92246300e-02, 4.07277793e-02, 3.38917561e-02, 7.55063370e-02,
          1.58644065e-01, 1.69498816e-01, 2.58118480e-01, 2.58118480e-01,
          2.56598473e-01, 1.61293983e-01, 1.67188108e-01, 1.01497754e-01,
          6.01174906e-02, 1.04044773e-01, 1.17954999e-01, 2.58118480e-01,
          2.22719714e-01, 1.68655649e-01, 1.98746115e-01, 2.14193508e-01,
          1.73022434e-01, 1.06748052e-01, 1.12810604e-01, 1.09104164e-01,
          1.67592794e-01, 6.45265579e-02, 1.81492031e-01, 2.22719714e-01,
          2.00825393e-01, 2.22719714e-01, 1.69584051e-01, 2.22719714e-01,
          1.72175318e-01, 1.20040990e-01, 2.22719714e-01, 1.35249004e-01,
          1.60265982e-01, 1.08158767e-01, 9.98832434e-02, 1.13252327e-01,
          9.71430689e-02, 1.16367102e-01, 2.16214105e-01, 7.73784816e-02,
          6.78780153e-02, 1.79929167e-01, 8.48359242e-02, 1.02961533e-01,
          1.83981016e-01, 2.22719714e-01, 2.22719714e-01, 2.22719714e-01,
          2.82488000e-02, 1.18000418e-01, 1.80445090e-01, 1.58388957e-01,
          1.67282745e-01, 2.03406677e-01, 2.27742061e-01, 1.89757735e-01,
          1.47381693e-01, 7.90357739e-02, 8.93792808e-02, 1.88484579e-01,
          1.19082801e-01, 7.47616738e-02, 1.44069448e-01, 1.55374676e-01,
          1.97840333e-01, 1.96091861e-01, 5.30035645e-02, 1.01736262e-01,
          1.33605018e-01, 1.01500407e-01, 7.11092725e-02, 1.55074075e-01,
          2.27742061e-01, 2.27742061e-01, 2.27742061e-01, 2.01059282e-01,
          2.27742061e-01, 2.27742061e-01, 1.27864584e-01, 7.78111517e-02,
          1.79914564e-01, 1.77532539e-01, 2.14587063e-01, 2.27742061e-01,
          8.21662471e-02, 1.17619574e-01, 2.18379885e-01, 1.22555569e-01,
          1.14095800e-01, 9.14957076e-02, 1.19444050e-01, 1.46677420e-01,
          1.28165752e-01, 7.92205334e-02, 1.32167846e-01, 1.68534219e-01,
          1.29143164e-01, 1.57027453e-01, 1.05275206e-01, 1.29660696e-01,
          1.47122100e-01, 1.63245782e-01, 1.90426260e-01, 2.25480005e-01,
          2.25480005e-01, 1.49394676e-01, 1.95973858e-01, 1.68502510e-01,
          2.13114589e-01, 1.60378098e-01, 1.19799830e-01, 9.64908823e-02,
          2.25480005e-01, 2.25480005e-01, 1.85868859e-01, 2.25480005e-01,
          2.25480005e-01, 2.25480005e-01, 2.25480005e-01, 9.86079052e-02,
          8.44931975e-02, 1.15217246e-01, 1.11508302e-01, 9.35197845e-02,
          1.34735525e-01, 8.84572566e-02, 1.07579738e-01, 9.45449322e-02,
          1.60901040e-01, 1.12271965e-01, 1.01239920e-01, 1.85894027e-01,
          2.44190678e-01, 2.44190678e-01, 1.16480805e-01, 1.47767261e-01,
          1.44708320e-01, 1.28108621e-01, 9.66314524e-02, 1.97442651e-01,
          2.16559738e-01, 1.83182001e-01, 2.35633090e-01, 1.44904539e-01,
          1.84150457e-01, 1.96263745e-01, 1.26124173e-01, 1.30762890e-01,
          1.11919798e-01, 2.44190678e-01, 2.44190678e-01, 2.44190678e-01,
          1.75788298e-01, 2.26405218e-01, 1.99570924e-01, 1.00131057e-01,
          2.01950654e-01, 9.33580771e-02, 1.46954656e-01, 2.23923981e-01,
          1.51978180e-01, 8.38824585e-02, 2.10748121e-01, 1.60533220e-01,
          1.89903647e-01, 2.42278486e-01, 1.26199782e-01, 5.83098270e-02,
          4.83688191e-02, 5.61828762e-02, 9.42045823e-02, 2.42278486e-01,
          2.38885030e-01, 2.42278486e-01, 1.71249777e-01, 7.30585232e-02,
          2.01020122e-01, 2.42278486e-01, 1.78521067e-01, 1.21387981e-01,
          2.22863361e-01, 1.85911730e-01, 9.92683470e-02, 2.42278486e-01,
          1.38149500e-01, 4.76173088e-02, 3.87731008e-02, 2.16159858e-02,
          3.61625291e-02, 1.33363038e-01, 1.97033554e-01, 2.42278486e-01,
          2.47473031e-01, 1.41576797e-01, 9.18598771e-02, 9.91296396e-02,
          8.12375471e-02, 5.17672487e-02, 7.98405781e-02, 1.41021952e-01,
          2.00155199e-01, 2.63650954e-01, 8.25004131e-02, 5.73847257e-02,
          5.27064912e-02, 5.39701395e-02, 8.10937807e-02, 1.03031315e-01,
          2.03151584e-01, 2.63650954e-01, 2.22700447e-01, 1.98072672e-01,
          2.63650954e-01, 1.72455251e-01, 7.75241405e-02, 8.52571726e-02,
          5.93607165e-02, 1.14148296e-01, 1.25543371e-01, 2.63650954e-01,
          7.95112923e-02, 1.60545215e-01, 1.51122078e-01, 1.43291175e-01,
          2.60424137e-01, 1.53090104e-01, 2.63650954e-01, 2.63650954e-01,
          2.90115446e-01, 1.02557257e-01, 8.21194798e-02, 5.46715409e-02,
          3.82211320e-02, 3.51273492e-02, 4.49815877e-02, 7.29495734e-02,
          2.81838238e-01, 2.90115446e-01, 2.61787444e-01, 1.56548962e-01,
          9.71687511e-02, 3.09538450e-02, 4.03692499e-02, 2.99979690e-02,
          6.28051981e-02, 2.18828633e-01, 2.90115446e-01, 1.10930383e-01,
          1.06760353e-01, 9.11576301e-02, 1.01807088e-01, 9.26970467e-02,
          6.49581030e-02, 1.63691044e-01, 2.90115446e-01, 2.90115446e-01,
          2.65180767e-01, 1.85677707e-01, 1.03093445e-01, 4.07878831e-02,
          2.65413076e-02, 1.68829653e-02, 1.56565309e-01, 2.90115446e-01,
          2.55232543e-01, 2.04793841e-01, 1.30451694e-01, 8.52290466e-02,
          3.85310054e-02, 1.08365387e-01, 1.02463081e-01, 1.30838916e-01,
          2.03344047e-01, 7.10580945e-02, 5.65446317e-02, 7.35156909e-02,
          6.66880682e-02, 1.55438617e-01, 2.51016259e-01, 2.55232543e-01,
          2.55232543e-01, 1.70010269e-01, 2.55232543e-01, 2.07190722e-01,
          1.70599848e-01, 1.05829000e-01, 2.13640369e-02, 4.93271202e-02,
          3.40609625e-02, 1.54442430e-01, 2.55232543e-01, 1.59211636e-01,
          9.97350514e-02, 1.10228002e-01, 1.28011823e-01, 2.55232543e-01,
          2.23374024e-01, 1.10291824e-01, 1.47744030e-01, 2.55232543e-01,
          5.35721146e-02, 7.82003477e-02, 9.29232612e-02, 9.30662751e-02,
          1.92801878e-01, 2.35771939e-01, 2.23965675e-01, 2.22689062e-01,
          1.51883677e-01, 2.14212045e-01, 2.35771939e-01, 1.74763590e-01,
          1.42351657e-01, 1.18584573e-01, 2.13406533e-01, 1.43858492e-01,
          2.34040409e-01, 1.68098062e-01, 4.95687164e-02, 3.66407931e-02,
          7.68383294e-02, 1.23943441e-01, 2.35771939e-01, 2.35771939e-01,
          1.41930193e-01, 1.10628180e-01, 8.19359943e-02, 7.64111280e-02,
          5.80561496e-02, 8.53492096e-02, 1.14944465e-01, 2.25189298e-01,
          2.35771939e-01, 2.35771939e-01, 2.35771939e-01, 1.32846057e-01,
          2.21941590e-01, 2.21941590e-01, 1.73604652e-01, 1.00980766e-01,
          7.73194209e-02, 9.79030132e-02, 1.12458177e-01, 1.44689620e-01,
          8.36695582e-02, 2.16117010e-01, 2.21941590e-01, 2.21941590e-01,
          1.63165569e-01, 1.46365851e-01, 1.55859560e-01, 2.04425380e-01,
          2.01662362e-01, 6.65407330e-02, 1.30962804e-01, 1.42476991e-01,
          1.18383370e-01, 8.31677467e-02, 3.61174271e-02, 1.21443100e-01,
          2.21941590e-01, 2.21941590e-01, 9.55895558e-02, 2.21941590e-01,
          2.21941590e-01, 1.79637089e-01, 2.14938030e-01, 1.33401230e-01,
          1.05087809e-01, 2.21941590e-01, 2.21941590e-01, 1.09132379e-01,
          9.12272856e-02, 1.73782289e-01, 1.20434329e-01, 1.34384960e-01,
          1.49738938e-01, 1.20347641e-01, 2.04175681e-01, 2.14588806e-01,
          6.31462634e-02, 5.61824925e-02, 6.70994297e-02, 1.43445686e-01,
          2.14588806e-01, 2.14588806e-01, 1.61518633e-01, 2.14588806e-01,
          1.77224338e-01, 5.20211160e-02, 2.01570213e-01, 2.14588806e-01,
          2.12436870e-01, 1.57049432e-01, 2.14588806e-01, 7.88518786e-02,
          2.14588806e-01, 2.14588806e-01, 1.38864189e-01, 8.96617323e-02,
          1.77335337e-01, 2.14588806e-01, 1.67407483e-01, 2.14588806e-01,
          1.02675103e-01, 2.14588806e-01, 1.52683184e-01, 1.09205313e-01,
          9.85268801e-02, 3.68721895e-02, 1.33847803e-01, 2.24544346e-01,
          2.33147725e-01, 1.97445184e-01, 2.50700444e-01, 1.76989302e-01,
          1.10295095e-01, 2.50700444e-01, 8.47164243e-02, 4.69111651e-02,
          5.02886400e-02, 1.02807835e-01, 4.30460870e-02, 1.40403360e-01,
          1.01095192e-01, 2.50700444e-01, 1.96516991e-01, 1.15458876e-01,
          1.32112920e-01, 2.01009393e-01, 2.50700444e-01, 1.17314786e-01,
          2.50700444e-01, 1.28302440e-01, 2.17910945e-01, 2.50700444e-01,
          1.36581257e-01, 6.18453324e-02, 8.53387117e-02, 1.63508475e-01,
          6.46422133e-02, 1.45146713e-01, 1.33346140e-01, 2.50700444e-01,
          1.39408782e-01, 1.50218278e-01, 2.70380706e-01, 2.20510125e-01,
          1.50041386e-01, 1.48064420e-01, 1.23072617e-01, 7.36446828e-02,
          9.87900347e-02, 2.03059629e-01, 3.41322161e-02, 1.40762478e-01,
          1.84628025e-01, 2.70380706e-01, 2.70380706e-01, 2.06738919e-01,
          2.15313658e-01, 2.70380706e-01, 7.14474246e-02, 4.74689752e-02,
          2.24582493e-01, 1.45407006e-01, 1.84104308e-01, 1.46668971e-01,
          8.71095508e-02, 3.08553837e-02, 5.70874251e-02, 5.46744913e-02,
          2.35024989e-02, 2.18957569e-02, 1.48877352e-01, 2.70380706e-01,
          2.70380706e-01, 1.60168767e-01, 4.90085632e-02, 8.65290686e-02,
          3.42948198e-01, 5.94276078e-02, 4.56039719e-02, 7.18984976e-02,
          1.32805511e-01, 1.47295281e-01, 9.22574624e-02, 2.26393640e-01,
          3.94842476e-01, 3.94842476e-01, 1.04316697e-01, 6.91979975e-02,
          3.89940850e-02, 2.54112408e-02, 5.76433493e-03, 6.77941181e-03,
          2.87763655e-01, 3.94842476e-01, 4.49974760e-02, 7.87366182e-03,
          1.20475581e-02, 5.29225059e-02, 1.82682782e-01, 1.54613212e-01,
          6.20697103e-02, 5.21281362e-02, 1.47747383e-01, 7.74640292e-02,
          1.25388177e-02, 6.95305923e-03, 5.93583286e-03, 1.04408087e-02,
          5.91796963e-03, 1.48026859e-02, 4.75573353e-02, 3.17112863e-01,
          3.21739644e-01, 5.27001694e-02, 5.08859232e-02, 2.91779470e-02,
          5.89916296e-03, 8.62109184e-04, 5.25596365e-03, 1.80414841e-01,
          3.21739644e-01, 2.24254236e-01, 5.49136102e-02, 6.13962226e-02,
          9.21186283e-02, 1.92368835e-01, 1.65357903e-01, 1.82902187e-01,
          3.21739644e-01, 3.21739644e-01, 6.48098737e-02, 7.89651833e-03,
          3.50999902e-03, 1.21865922e-03, 4.17679129e-03, 3.15223029e-03,
          8.19617417e-03, 5.38437814e-02, 3.21739644e-01, 7.27712959e-02,
          4.94999532e-03, 7.96485133e-03, 2.07573492e-02, 1.39680639e-01,
          2.81254113e-01, 1.70264527e-01, 1.81567028e-01, 3.21486771e-01,
          8.84368494e-02, 2.11625453e-02, 4.84010391e-02, 1.48971915e-01,
          2.68134683e-01, 2.68134683e-01, 2.68134683e-01, 2.38309368e-01,
          1.87988549e-01, 3.05980723e-02, 2.29575727e-02, 4.65786383e-02,
          8.50228220e-02, 2.68134683e-01, 2.52081215e-01, 2.24687323e-01,
          1.48334682e-01, 6.80815279e-02, 6.41636327e-02, 1.59767326e-02,
          2.17654835e-02, 6.08578175e-02, 2.68134683e-01, 2.68134683e-01,
          2.68134683e-01, 1.44646645e-01, 1.25077426e-01, 4.16792072e-02,
          4.90614995e-02, 4.46985215e-02, 6.64482489e-02, 2.61827976e-01,
          2.68134683e-01, 1.22895405e-01, 5.52302636e-02, 5.74847609e-02,
          4.70846295e-02, 6.03763722e-02, 5.12062535e-02, 5.70382252e-02,
          4.67653312e-02, 1.42881036e-01, 2.40782186e-01, 2.36140609e-01,
          5.70269302e-02, 2.30931252e-01, 2.40782186e-01, 2.40782186e-01,
          1.88020468e-01, 1.73503727e-01, 1.95743248e-01, 2.40782186e-01,
          2.40782186e-01, 1.65780663e-01, 6.12466596e-02, 4.32127081e-02,
          3.24487388e-02, 5.58961593e-02, 4.13179323e-02, 6.17433786e-02,
          1.38949722e-01, 1.11170754e-01, 4.59500179e-02, 2.40782186e-01,
          1.33432999e-01, 2.40782186e-01, 2.31748849e-01, 1.45185545e-01,
          1.47844717e-01, 2.40782186e-01, 2.40782186e-01, 1.85284942e-01,
          1.42772734e-01, 2.16559872e-01, 2.16559872e-01, 1.32996216e-01,
          1.87386379e-01, 7.36238882e-02, 1.42281368e-01, 1.80578798e-01,
          1.37997046e-01, 7.35490769e-02, 2.16559872e-01, 2.16559872e-01,
          1.86888948e-01, 2.06814647e-01, 5.97177036e-02, 1.38358355e-01,
          1.01075828e-01, 1.02575414e-01, 1.63629204e-01, 1.26758024e-01,
          2.16559872e-01, 2.16559872e-01, 1.33124053e-01, 1.04259022e-01,
          1.83133841e-01, 2.16559872e-01, 1.71757713e-01, 1.40692979e-01,
          1.82572439e-01, 1.70680523e-01, 2.16559872e-01, 1.40366092e-01,
          9.40935314e-02, 1.66714355e-01, 1.85143575e-01, 1.95528969e-01,
          1.45172134e-01, 2.10486263e-01, 1.39508337e-01, 2.16391563e-01,
          2.23196372e-01, 8.49374309e-02, 1.61279187e-01, 8.26152861e-02,
          1.22153342e-01, 2.23196372e-01, 1.64852127e-01, 6.45222291e-02,
          1.48470849e-01, 2.23196372e-01, 1.08360201e-01, 9.67278928e-02,
          1.07398689e-01, 2.23196372e-01, 2.23196372e-01, 2.06041053e-01,
          1.29106477e-01, 2.23196372e-01, 1.95795015e-01, 9.58639309e-02,
          1.42474532e-01, 1.18895411e-01, 2.23196372e-01, 2.23196372e-01,
          1.31430224e-01, 1.12589888e-01, 1.72948956e-01, 2.17190534e-01,
          9.95569676e-02, 9.62926149e-02, 9.72901955e-02, 2.23196372e-01,
          1.98180020e-01, 2.62429919e-02, 4.14849371e-02, 6.70450479e-02,
          1.35196567e-01, 1.56880289e-01, 5.46077639e-02, 4.24401052e-02,
          1.62058130e-01, 1.09363340e-01, 2.85581201e-02, 2.97180712e-02,
          1.35915220e-01, 2.99028337e-01, 2.99028337e-01, 1.41306564e-01,
          7.17779100e-02, 1.56515986e-01, 2.99028337e-01, 1.76302474e-02,
          1.79333184e-02, 1.62405334e-02, 7.04201758e-02, 8.39101821e-02,
          4.65778671e-02, 9.29615274e-02, 2.99028337e-01, 1.88017294e-01,
          2.50204280e-02, 6.10095561e-02, 6.90213814e-02, 2.99028337e-01,
          2.99028337e-01, 2.57578909e-01, 1.86292410e-01, 2.99028337e-01,
          8.44215378e-02, 4.41147238e-02, 4.01388630e-02, 1.39150143e-01,
          3.75966817e-01, 3.75966817e-01, 1.77352846e-01, 1.21588148e-01,
          1.59232646e-01, 5.30195460e-02, 2.96749119e-02, 1.43000018e-02,
          1.56614073e-02, 7.98421353e-02, 2.75183916e-02, 6.14926368e-02,
          5.62646091e-02, 8.01975280e-02, 1.11609675e-01, 4.85760048e-02,
          6.64075762e-02, 1.13467112e-01, 3.75966817e-01, 3.75966817e-01,
          3.46274704e-01, 2.23739907e-01, 2.03710005e-01, 7.31803626e-02,
          2.38772798e-02, 8.54942016e-03, 3.61097790e-02, 1.94462642e-01,
          6.58201277e-02, 5.51146492e-02, 6.07787743e-02, 6.92899600e-02,
          7.59682879e-02, 3.44704427e-02, 3.22497152e-02, 1.58978365e-02,
          6.22859932e-02, 3.42344120e-02, 6.23142049e-02, 8.75108913e-02,
          1.13469809e-01, 7.96970949e-02, 2.92508882e-02, 3.62231210e-02,
          4.04321738e-02, 4.33186054e-01, 4.33186054e-01, 2.37085149e-01,
          7.98098966e-02, 1.07476756e-01, 6.78703263e-02, 3.01592853e-02,
          3.01569197e-02, 2.37040110e-02, 8.26303661e-02, 4.05839235e-02,
          9.69936624e-02, 1.16213158e-01, 9.80412290e-02, 5.01769148e-02,
          2.07530428e-02, 2.61105858e-02, 4.06672210e-02, 4.33186054e-01,
          4.33186054e-01, 1.99826002e-01, 1.40127033e-01, 1.01144582e-01,
          2.40396485e-02, 4.22487259e-02, 1.53199490e-02, 2.71724537e-02,
          3.23124081e-01, 3.23124081e-01, 1.52113944e-01, 3.87908518e-02,
          3.42840366e-02, 3.08717508e-02, 9.78807136e-02, 5.32883629e-02,
          7.28530884e-02, 2.99233556e-01, 3.23124081e-01, 1.50280654e-01,
          8.55205804e-02, 6.12094440e-02, 8.90482590e-03, 5.47118895e-02,
          1.60921607e-02, 2.59927921e-02, 3.23124081e-01, 3.23124081e-01,
          1.33303076e-01, 4.46915068e-02, 1.84761081e-02, 2.79273596e-02,
          1.31839737e-01, 9.24021006e-02, 9.64135304e-02, 3.23124081e-01,
          3.23124081e-01, 1.69990689e-01, 6.92759752e-02, 3.28499526e-02,
          8.69697034e-02, 6.05523549e-02, 4.85762134e-02, 7.80789778e-02,
          9.75915864e-02, 6.07468970e-02, 6.77376613e-02, 6.10666908e-02,
          6.55458421e-02, 2.66528875e-01, 1.51636824e-01, 2.66528875e-01,
          2.66528875e-01, 2.66528875e-01, 2.44708180e-01, 2.66528875e-01,
          1.81818157e-01, 1.26257330e-01, 8.41215178e-02, 8.76501724e-02,
          1.04100287e-01, 8.90253186e-02, 1.48113713e-01, 7.29615763e-02,
          5.01033962e-02, 2.65060440e-02, 5.16035855e-02, 1.22743756e-01,
          1.11836545e-01, 2.66528875e-01, 2.66528875e-01, 2.66528875e-01,
          2.66528875e-01, 2.66528875e-01, 1.01619527e-01, 7.08023384e-02,
          1.05213150e-01, 6.51968122e-02, 2.08506972e-01, 2.11432412e-01,
          1.86114058e-01, 1.75398782e-01, 2.05749273e-01, 1.66105852e-01,
          1.08508103e-01, 1.48522913e-01, 1.04671530e-01, 1.80710927e-01,
          2.03104943e-01, 1.90629393e-01, 1.59844860e-01, 1.67661577e-01,
          1.51809081e-01, 2.11432412e-01, 4.84090857e-02, 8.33509192e-02,
          2.11432412e-01, 1.82527021e-01, 2.11432412e-01, 2.11432412e-01,
          2.11432412e-01, 9.76973549e-02, 9.70135704e-02, 1.31760433e-01,
          1.42330781e-01, 1.88396022e-01, 1.24528274e-01, 2.11432412e-01,
          1.89259291e-01, 1.23516887e-01, 1.14600427e-01, 2.11432412e-01,
          2.28723869e-01, 1.60709858e-01, 1.54838637e-01, 1.57061756e-01,
          1.37759060e-01, 8.96625817e-02, 1.21239886e-01, 8.83013085e-02,
          2.28723869e-01, 2.28723869e-01, 1.01577520e-01, 1.52613446e-01,
          1.36975110e-01, 7.11634979e-02, 6.54545426e-02, 1.20864667e-01,
          1.10749535e-01, 2.28723869e-01, 2.17428267e-01, 2.28723869e-01,
          1.21115506e-01, 1.22410260e-01, 2.17281744e-01, 1.84536070e-01,
          1.55100226e-01, 9.73110795e-02, 1.96490124e-01, 2.28723869e-01,
          1.43278286e-01, 1.56647414e-01, 2.28723869e-01, 1.62840441e-01,
          1.31803229e-01, 1.98781252e-01, 1.44240633e-01, 1.98321834e-01 ]
      - [ 1.60316810e-01, 9.60584134e-02, 7.34392181e-02, 9.97064412e-02,
          1.12243280e-01, 1.78826392e-01, 1.24826416e-01, 9.61316004e-02,
          2.62161523e-01, 2.63354510e-01, 2.24737525e-01, 1.56332836e-01,
          1.18978083e-01, 1.34159982e-01, 1.49085283e-01, 1.17685750e-01,
          1.35574847e-01, 2.63354510e-01, 1.79182649e-01, 2.54025102e-01,
          2.63354510e-01, 1.79385811e-01, 7.30859712e-02, 8.49019065e-02,
          1.30262285e-01, 6.26842901e-02, 9.97416005e-02, 2.63354510e-01,
          2.63354510e-01, 2.63354510e-01, 1.13333568e-01, 8.63461196e-02,
          5.78496419e-02, 6.27993494e-02, 5.10502756e-02, 1.69931859e-01,
          2.59078860e-01, 2.63694763e-01, 2.63694763e-01, 1.32166624e-01,
          1.14301190e-01, 1.02786154e-01, 1.16996668e-01, 1.14562422e-01,
          1.94878697e-01, 2.43549287e-01, 2.45929748e-01, 2.63694763e-01,
          2.63631463e-01, 7.75607601e-02, 3.05674374e-02, 7.16961026e-02,
          5.12028486e-02, 1.17356725e-01, 2.63694763e-01, 2.63694763e-01,
          2.63694763e-01, 9.98080224e-02, 8.71460214e-02, 6.09872825e-02,
          6.77892640e-02, 4.97853793e-02, 1.23970494e-01, 1.54816538e-01,
          1.83287859e-01, 2.38313690e-01, 1.57321036e-01, 5.86574115e-02,
          2.35328861e-02, 1.68836378e-02, 2.07497496e-02, 4.27415110e-02,
          3.99037540e-01, 1.68804958e-01, 3.99037540e-01, 2.03899741e-01,
          5.71925342e-02, 5.07769082e-03, 1.43841296e-01, 3.51777747e-02,
          3.99037540e-01, 3.99037540e-01, 9.49571431e-02, 1.59544758e-02,
          2.96810083e-03, 7.21838744e-03, 5.93298231e-04, 2.48598736e-02,
          3.37429196e-02, 3.99037540e-01, 1.31178632e-01, 4.08446975e-02,
          1.30458489e-01, 8.62639248e-02, 2.52426025e-02, 2.41056376e-04,
          4.40660818e-03, 1.77209184e-03, 8.40330422e-02, 1.50907725e-01,
          1.38205616e-03, 1.29039027e-03, 3.75516502e-05, 3.63487657e-03,
